digraph Tree {
node [shape=box, style="filled, rounded", color="black", fontname=helvetica] ;
edge [fontname=helvetica] ;
0 [label=<radiant_team_glicko rating &le; 1218.335<br/>gini = 0.4997<br/>samples = 5258<br/>value = [2689, 2569]<br/>class = Dire>, fillcolor="#e581390b"] ;
1 [label=<dire_team_losses &le; 447.0<br/>gini = 0.4991<br/>samples = 2808<br/>value = [1345, 1463]<br/>class = Radiant>, fillcolor="#399de515"] ;
0 -> 1 [labeldistance=2.5, labelangle=45, headlabel="True"] ;
2 [label=<dire_team_delta month &le; -3.8<br/>gini = 0.4995<br/>samples = 2744<br/>value = [1327, 1417]<br/>class = Radiant>, fillcolor="#399de510"] ;
1 -> 2 ;
3 [label=<dire_team_glicko sigma &le; 129.565<br/>gini = 0.4902<br/>samples = 465<br/>value = [200, 265]<br/>class = Radiant>, fillcolor="#399de53f"] ;
2 -> 3 ;
4 [label=<radiant_team_glicko sigma &le; 164.67<br/>gini = 0.4735<br/>samples = 278<br/>value = [107, 171]<br/>class = Radiant>, fillcolor="#399de55f"] ;
3 -> 4 ;
5 [label=<dire_team_glicko2 phi &le; 45.195<br/>gini = 0.476<br/>samples = 274<br/>value = [107, 167]<br/>class = Radiant>, fillcolor="#399de55c"] ;
4 -> 5 ;
6 [label=<radiant_team_elo rating &le; 454.03<br/>gini = 0.4496<br/>samples = 85<br/>value = [29, 56]<br/>class = Radiant>, fillcolor="#399de57b"] ;
5 -> 6 ;
7 [label=<dire_team_glicko sigma &le; 120.92<br/>gini = 0.4521<br/>samples = 84<br/>value = [29, 55]<br/>class = Radiant>, fillcolor="#399de579"] ;
6 -> 7 ;
8 [label=<gini = 0.4628<br/>samples = 33<br/>value = [12, 21]<br/>class = Radiant>, fillcolor="#399de56d"] ;
7 -> 8 ;
9 [label=<gini = 0.4444<br/>samples = 51<br/>value = [17, 34]<br/>class = Radiant>, fillcolor="#399de57f"] ;
7 -> 9 ;
10 [label=<gini = 0.0<br/>samples = 1<br/>value = [0, 1]<br/>class = Radiant>, fillcolor="#399de5ff"] ;
6 -> 10 ;
11 [label=<dire_team_losses &le; 18.5<br/>gini = 0.4848<br/>samples = 189<br/>value = [78, 111]<br/>class = Radiant>, fillcolor="#399de54c"] ;
5 -> 11 ;
12 [label=<radiant_team_glicko sigma &le; 71.22<br/>gini = 0.4444<br/>samples = 3<br/>value = [2, 1]<br/>class = Dire>, fillcolor="#e581397f"] ;
11 -> 12 ;
13 [label=<gini = 0.0<br/>samples = 2<br/>value = [2, 0]<br/>class = Dire>, fillcolor="#e58139ff"] ;
12 -> 13 ;
14 [label=<gini = 0.0<br/>samples = 1<br/>value = [0, 1]<br/>class = Radiant>, fillcolor="#399de5ff"] ;
12 -> 14 ;
15 [label=<dire_team_glicko2 phi &le; 58.625<br/>gini = 0.4833<br/>samples = 186<br/>value = [76, 110]<br/>class = Radiant>, fillcolor="#399de54f"] ;
11 -> 15 ;
16 [label=<dire_team_glicko2 phi &le; 55.895<br/>gini = 0.486<br/>samples = 173<br/>value = [72, 101]<br/>class = Radiant>, fillcolor="#399de549"] ;
15 -> 16 ;
17 [label=<radiant_team_elo avg active &le; 986.725<br/>gini = 0.4832<br/>samples = 169<br/>value = [69, 100]<br/>class = Radiant>, fillcolor="#399de54f"] ;
16 -> 17 ;
18 [label=<dire_team_glicko sigma &le; 113.9<br/>gini = 0.4846<br/>samples = 165<br/>value = [68, 97]<br/>class = Radiant>, fillcolor="#399de54c"] ;
17 -> 18 ;
19 [label=<dire_team_elo rating &le; 1098.98<br/>gini = 0.4973<br/>samples = 41<br/>value = [19, 22]<br/>class = Radiant>, fillcolor="#399de523"] ;
18 -> 19 ;
20 [label=<gini = 0.4991<br/>samples = 23<br/>value = [11, 12]<br/>class = Radiant>, fillcolor="#399de515"] ;
19 -> 20 ;
21 [label=<gini = 0.4938<br/>samples = 18<br/>value = [8, 10]<br/>class = Radiant>, fillcolor="#399de533"] ;
19 -> 21 ;
22 [label=<radiant_team_glicko sigma &le; 136.47<br/>gini = 0.478<br/>samples = 124<br/>value = [49, 75]<br/>class = Radiant>, fillcolor="#399de558"] ;
18 -> 22 ;
23 [label=<dire_team_delta month &le; -25.9<br/>gini = 0.4773<br/>samples = 122<br/>value = [48, 74]<br/>class = Radiant>, fillcolor="#399de55a"] ;
22 -> 23 ;
24 [label=<radiant_team_glicko2 phi &le; 26.55<br/>gini = 0.4791<br/>samples = 93<br/>value = [37, 56]<br/>class = Radiant>, fillcolor="#399de557"] ;
23 -> 24 ;
25 [label=<dire_team_delta week &le; -54.65<br/>gini = 0.48<br/>samples = 90<br/>value = [36, 54]<br/>class = Radiant>, fillcolor="#399de555"] ;
24 -> 25 ;
26 [label=<gini = 0.48<br/>samples = 30<br/>value = [12, 18]<br/>class = Radiant>, fillcolor="#399de555"] ;
25 -> 26 ;
27 [label=<dire_team_glicko2 rating &le; 1517.505<br/>gini = 0.48<br/>samples = 60<br/>value = [24, 36]<br/>class = Radiant>, fillcolor="#399de555"] ;
25 -> 27 ;
28 [label=<gini = 0.48<br/>samples = 35<br/>value = [14, 21]<br/>class = Radiant>, fillcolor="#399de555"] ;
27 -> 28 ;
29 [label=<gini = 0.48<br/>samples = 25<br/>value = [10, 15]<br/>class = Radiant>, fillcolor="#399de555"] ;
27 -> 29 ;
30 [label=<gini = 0.4444<br/>samples = 3<br/>value = [1, 2]<br/>class = Radiant>, fillcolor="#399de57f"] ;
24 -> 30 ;
31 [label=<radiant_team_wins &le; 89.0<br/>gini = 0.4709<br/>samples = 29<br/>value = [11, 18]<br/>class = Radiant>, fillcolor="#399de563"] ;
23 -> 31 ;
32 [label=<gini = 0.4664<br/>samples = 27<br/>value = [10, 17]<br/>class = Radiant>, fillcolor="#399de569"] ;
31 -> 32 ;
33 [label=<gini = 0.5<br/>samples = 2<br/>value = [1, 1]<br/>class = Dire>, fillcolor="#e5813900"] ;
31 -> 33 ;
34 [label=<gini = 0.5<br/>samples = 2<br/>value = [1, 1]<br/>class = Dire>, fillcolor="#e5813900"] ;
22 -> 34 ;
35 [label=<dire_team_elo avg active &le; 1128.975<br/>gini = 0.375<br/>samples = 4<br/>value = [1, 3]<br/>class = Radiant>, fillcolor="#399de5aa"] ;
17 -> 35 ;
36 [label=<gini = 0.5<br/>samples = 2<br/>value = [1, 1]<br/>class = Dire>, fillcolor="#e5813900"] ;
35 -> 36 ;
37 [label=<gini = 0.0<br/>samples = 2<br/>value = [0, 2]<br/>class = Radiant>, fillcolor="#399de5ff"] ;
35 -> 37 ;
38 [label=<radiant_team_losses &le; 63.0<br/>gini = 0.375<br/>samples = 4<br/>value = [3, 1]<br/>class = Dire>, fillcolor="#e58139aa"] ;
16 -> 38 ;
39 [label=<gini = 0.4444<br/>samples = 3<br/>value = [2, 1]<br/>class = Dire>, fillcolor="#e581397f"] ;
38 -> 39 ;
40 [label=<gini = 0.0<br/>samples = 1<br/>value = [1, 0]<br/>class = Dire>, fillcolor="#e58139ff"] ;
38 -> 40 ;
41 [label=<radiant_team_glicko2 rating &le; 1424.21<br/>gini = 0.426<br/>samples = 13<br/>value = [4, 9]<br/>class = Radiant>, fillcolor="#399de58e"] ;
15 -> 41 ;
42 [label=<radiant_team_delta month &le; -64.2<br/>gini = 0.375<br/>samples = 12<br/>value = [3, 9]<br/>class = Radiant>, fillcolor="#399de5aa"] ;
41 -> 42 ;
43 [label=<gini = 0.5<br/>samples = 2<br/>value = [1, 1]<br/>class = Dire>, fillcolor="#e5813900"] ;
42 -> 43 ;
44 [label=<dire_team_glicko2 mu &le; 1617.285<br/>gini = 0.32<br/>samples = 10<br/>value = [2, 8]<br/>class = Radiant>, fillcolor="#399de5bf"] ;
42 -> 44 ;
45 [label=<gini = 0.0<br/>samples = 4<br/>value = [0, 4]<br/>class = Radiant>, fillcolor="#399de5ff"] ;
44 -> 45 ;
46 [label=<gini = 0.4444<br/>samples = 6<br/>value = [2, 4]<br/>class = Radiant>, fillcolor="#399de57f"] ;
44 -> 46 ;
47 [label=<gini = 0.0<br/>samples = 1<br/>value = [1, 0]<br/>class = Dire>, fillcolor="#e58139ff"] ;
41 -> 47 ;
48 [label=<gini = 0.0<br/>samples = 4<br/>value = [0, 4]<br/>class = Radiant>, fillcolor="#399de5ff"] ;
4 -> 48 ;
49 [label=<radiant_team_wins &le; 76.5<br/>gini = 0.5<br/>samples = 187<br/>value = [93, 94]<br/>class = Radiant>, fillcolor="#399de503"] ;
3 -> 49 ;
50 [label=<radiant_team_losses &le; 86.5<br/>gini = 0.4992<br/>samples = 175<br/>value = [91, 84]<br/>class = Dire>, fillcolor="#e5813914"] ;
49 -> 50 ;
51 [label=<dire_team_delta week &le; 0.85<br/>gini = 0.4998<br/>samples = 171<br/>value = [87, 84]<br/>class = Dire>, fillcolor="#e5813909"] ;
50 -> 51 ;
52 [label=<dire_team_glicko sigma &le; 171.455<br/>gini = 0.4948<br/>samples = 127<br/>value = [70, 57]<br/>class = Dire>, fillcolor="#e581392f"] ;
51 -> 52 ;
53 [label=<radiant_team_glicko2 rating &le; 1304.7649<br/>gini = 0.4628<br/>samples = 55<br/>value = [35, 20]<br/>class = Dire>, fillcolor="#e581396d"] ;
52 -> 53 ;
54 [label=<radiant_team_glicko mu &le; 581.11<br/>gini = 0.4488<br/>samples = 50<br/>value = [33, 17]<br/>class = Dire>, fillcolor="#e581397c"] ;
53 -> 54 ;
55 [label=<dire_team_glicko rating &le; 979.275<br/>gini = 0.4575<br/>samples = 48<br/>value = [31, 17]<br/>class = Dire>, fillcolor="#e5813973"] ;
54 -> 55 ;
56 [label=<gini = 0.0<br/>samples = 1<br/>value = [1, 0]<br/>class = Dire>, fillcolor="#e58139ff"] ;
55 -> 56 ;
57 [label=<dire_team_glicko sigma &le; 130.535<br/>gini = 0.4617<br/>samples = 47<br/>value = [30, 17]<br/>class = Dire>, fillcolor="#e581396e"] ;
55 -> 57 ;
58 [label=<gini = 0.5<br/>samples = 4<br/>value = [2, 2]<br/>class = Dire>, fillcolor="#e5813900"] ;
57 -> 58 ;
59 [label=<dire_team_elo monthly avg &le; 1167.595<br/>gini = 0.4543<br/>samples = 43<br/>value = [28, 15]<br/>class = Dire>, fillcolor="#e5813976"] ;
57 -> 59 ;
60 [label=<dire_team_glicko2 rating &le; 1548.5649<br/>gini = 0.4608<br/>samples = 25<br/>value = [16, 9]<br/>class = Dire>, fillcolor="#e5813970"] ;
59 -> 60 ;
61 [label=<gini = 0.4628<br/>samples = 11<br/>value = [7, 4]<br/>class = Dire>, fillcolor="#e581396d"] ;
60 -> 61 ;
62 [label=<gini = 0.4592<br/>samples = 14<br/>value = [9, 5]<br/>class = Dire>, fillcolor="#e5813971"] ;
60 -> 62 ;
63 [label=<gini = 0.4444<br/>samples = 18<br/>value = [12, 6]<br/>class = Dire>, fillcolor="#e581397f"] ;
59 -> 63 ;
64 [label=<gini = 0.0<br/>samples = 2<br/>value = [2, 0]<br/>class = Dire>, fillcolor="#e58139ff"] ;
54 -> 64 ;
65 [label=<radiant_team_glicko sigma &le; 157.635<br/>gini = 0.48<br/>samples = 5<br/>value = [2, 3]<br/>class = Radiant>, fillcolor="#399de555"] ;
53 -> 65 ;
66 [label=<dire_team_wins &le; 236.5<br/>gini = 0.4444<br/>samples = 3<br/>value = [1, 2]<br/>class = Radiant>, fillcolor="#399de57f"] ;
65 -> 66 ;
67 [label=<gini = 0.5<br/>samples = 2<br/>value = [1, 1]<br/>class = Dire>, fillcolor="#e5813900"] ;
66 -> 67 ;
68 [label=<gini = 0.0<br/>samples = 1<br/>value = [0, 1]<br/>class = Radiant>, fillcolor="#399de5ff"] ;
66 -> 68 ;
69 [label=<gini = 0.5<br/>samples = 2<br/>value = [1, 1]<br/>class = Dire>, fillcolor="#e5813900"] ;
65 -> 69 ;
70 [label=<radiant_team_delta month &le; -87.0<br/>gini = 0.4996<br/>samples = 72<br/>value = [35, 37]<br/>class = Radiant>, fillcolor="#399de50e"] ;
52 -> 70 ;
71 [label=<gini = 0.0<br/>samples = 1<br/>value = [1, 0]<br/>class = Dire>, fillcolor="#e58139ff"] ;
70 -> 71 ;
72 [label=<dire_team_elo rating &le; 1040.51<br/>gini = 0.4991<br/>samples = 71<br/>value = [34, 37]<br/>class = Radiant>, fillcolor="#399de515"] ;
70 -> 72 ;
73 [label=<gini = 0.0<br/>samples = 1<br/>value = [0, 1]<br/>class = Radiant>, fillcolor="#399de5ff"] ;
72 -> 73 ;
74 [label=<dire_team_elo rating &le; 1330.1951<br/>gini = 0.4996<br/>samples = 70<br/>value = [34, 36]<br/>class = Radiant>, fillcolor="#399de50e"] ;
72 -> 74 ;
75 [label=<dire_team_losses &le; 183.5<br/>gini = 0.4981<br/>samples = 49<br/>value = [23, 26]<br/>class = Radiant>, fillcolor="#399de51d"] ;
74 -> 75 ;
76 [label=<gini = 0.48<br/>samples = 5<br/>value = [2, 3]<br/>class = Radiant>, fillcolor="#399de555"] ;
75 -> 76 ;
77 [label=<gini = 0.499<br/>samples = 44<br/>value = [21, 23]<br/>class = Radiant>, fillcolor="#399de516"] ;
75 -> 77 ;
78 [label=<radiant_team_delta week &le; 0.3<br/>gini = 0.4989<br/>samples = 21<br/>value = [11, 10]<br/>class = Dire>, fillcolor="#e5813917"] ;
74 -> 78 ;
79 [label=<gini = 0.4983<br/>samples = 17<br/>value = [9, 8]<br/>class = Dire>, fillcolor="#e581391c"] ;
78 -> 79 ;
80 [label=<gini = 0.5<br/>samples = 4<br/>value = [2, 2]<br/>class = Dire>, fillcolor="#e5813900"] ;
78 -> 80 ;
81 [label=<radiant_team_glicko mu &le; 1584.98<br/>gini = 0.4742<br/>samples = 44<br/>value = [17, 27]<br/>class = Radiant>, fillcolor="#399de55e"] ;
51 -> 81 ;
82 [label=<radiant_team_glicko2 rating &le; 619.73<br/>gini = 0.464<br/>samples = 41<br/>value = [15, 26]<br/>class = Radiant>, fillcolor="#399de56c"] ;
81 -> 82 ;
83 [label=<dire_team_glicko2 rating &le; 1344.8049<br/>gini = 0.4688<br/>samples = 40<br/>value = [15, 25]<br/>class = Radiant>, fillcolor="#399de566"] ;
82 -> 83 ;
84 [label=<gini = 0.4922<br/>samples = 16<br/>value = [7, 9]<br/>class = Radiant>, fillcolor="#399de539"] ;
83 -> 84 ;
85 [label=<dire_team_elo avg active &le; 985.315<br/>gini = 0.4444<br/>samples = 24<br/>value = [8, 16]<br/>class = Radiant>, fillcolor="#399de57f"] ;
83 -> 85 ;
86 [label=<gini = 0.4444<br/>samples = 3<br/>value = [1, 2]<br/>class = Radiant>, fillcolor="#399de57f"] ;
85 -> 86 ;
87 [label=<gini = 0.4444<br/>samples = 21<br/>value = [7, 14]<br/>class = Radiant>, fillcolor="#399de57f"] ;
85 -> 87 ;
88 [label=<gini = 0.0<br/>samples = 1<br/>value = [0, 1]<br/>class = Radiant>, fillcolor="#399de5ff"] ;
82 -> 88 ;
89 [label=<gini = 0.4444<br/>samples = 3<br/>value = [2, 1]<br/>class = Dire>, fillcolor="#e581397f"] ;
81 -> 89 ;
90 [label=<gini = 0.0<br/>samples = 4<br/>value = [4, 0]<br/>class = Dire>, fillcolor="#e58139ff"] ;
50 -> 90 ;
91 [label=<dire_team_losses &le; 180.5<br/>gini = 0.2778<br/>samples = 12<br/>value = [2, 10]<br/>class = Radiant>, fillcolor="#399de5cc"] ;
49 -> 91 ;
92 [label=<gini = 0.0<br/>samples = 9<br/>value = [0, 9]<br/>class = Radiant>, fillcolor="#399de5ff"] ;
91 -> 92 ;
93 [label=<gini = 0.4444<br/>samples = 3<br/>value = [2, 1]<br/>class = Dire>, fillcolor="#e581397f"] ;
91 -> 93 ;
94 [label=<radiant_team_delta month &le; -104.7<br/>gini = 0.4999<br/>samples = 2279<br/>value = [1127, 1152]<br/>class = Radiant>, fillcolor="#399de506"] ;
2 -> 94 ;
95 [label=<dire_team_delta month &le; 33.3<br/>gini = 0.414<br/>samples = 41<br/>value = [12, 29]<br/>class = Radiant>, fillcolor="#399de595"] ;
94 -> 95 ;
96 [label=<radiant_team_glicko rating &le; 947.4<br/>gini = 0.4938<br/>samples = 18<br/>value = [8, 10]<br/>class = Radiant>, fillcolor="#399de533"] ;
95 -> 96 ;
97 [label=<gini = 0.0<br/>samples = 2<br/>value = [0, 2]<br/>class = Radiant>, fillcolor="#399de5ff"] ;
96 -> 97 ;
98 [label=<dire_team_elo rating &le; 1065.98<br/>gini = 0.5<br/>samples = 16<br/>value = [8, 8]<br/>class = Dire>, fillcolor="#e5813900"] ;
96 -> 98 ;
99 [label=<dire_team_elo avg active &le; 525.415<br/>gini = 0.4861<br/>samples = 12<br/>value = [7, 5]<br/>class = Dire>, fillcolor="#e5813949"] ;
98 -> 99 ;
100 [label=<radiant_team_glicko2 mu &le; 1582.28<br/>gini = 0.4959<br/>samples = 11<br/>value = [6, 5]<br/>class = Dire>, fillcolor="#e581392a"] ;
99 -> 100 ;
101 [label=<gini = 0.4898<br/>samples = 7<br/>value = [4, 3]<br/>class = Dire>, fillcolor="#e5813940"] ;
100 -> 101 ;
102 [label=<gini = 0.5<br/>samples = 4<br/>value = [2, 2]<br/>class = Dire>, fillcolor="#e5813900"] ;
100 -> 102 ;
103 [label=<gini = 0.0<br/>samples = 1<br/>value = [1, 0]<br/>class = Dire>, fillcolor="#e58139ff"] ;
99 -> 103 ;
104 [label=<radiant_team_elo avg active &le; 965.99<br/>gini = 0.375<br/>samples = 4<br/>value = [1, 3]<br/>class = Radiant>, fillcolor="#399de5aa"] ;
98 -> 104 ;
105 [label=<gini = 0.0<br/>samples = 1<br/>value = [0, 1]<br/>class = Radiant>, fillcolor="#399de5ff"] ;
104 -> 105 ;
106 [label=<gini = 0.4444<br/>samples = 3<br/>value = [1, 2]<br/>class = Radiant>, fillcolor="#399de57f"] ;
104 -> 106 ;
107 [label=<dire_team_delta week &le; 72.4<br/>gini = 0.2873<br/>samples = 23<br/>value = [4, 19]<br/>class = Radiant>, fillcolor="#399de5c9"] ;
95 -> 107 ;
108 [label=<gini = 0.0<br/>samples = 7<br/>value = [0, 7]<br/>class = Radiant>, fillcolor="#399de5ff"] ;
107 -> 108 ;
109 [label=<dire_team_glicko mu &le; 1873.395<br/>gini = 0.375<br/>samples = 16<br/>value = [4, 12]<br/>class = Radiant>, fillcolor="#399de5aa"] ;
107 -> 109 ;
110 [label=<gini = 0.4444<br/>samples = 9<br/>value = [3, 6]<br/>class = Radiant>, fillcolor="#399de57f"] ;
109 -> 110 ;
111 [label=<gini = 0.2449<br/>samples = 7<br/>value = [1, 6]<br/>class = Radiant>, fillcolor="#399de5d4"] ;
109 -> 111 ;
112 [label=<dire_team_delta month &le; -0.9<br/>gini = 0.5<br/>samples = 2238<br/>value = [1115, 1123]<br/>class = Radiant>, fillcolor="#399de502"] ;
94 -> 112 ;
113 [label=<gini = 0.4654<br/>samples = 57<br/>value = [36, 21]<br/>class = Dire>, fillcolor="#e581396a"] ;
112 -> 113 ;
114 [label=<radiant_team_glicko mu &le; 1626.025<br/>gini = 0.4999<br/>samples = 2181<br/>value = [1079, 1102]<br/>class = Radiant>, fillcolor="#399de505"] ;
112 -> 114 ;
115 [label=<radiant_team_glicko sigma &le; 234.72<br/>gini = 0.4999<br/>samples = 2174<br/>value = [1073, 1101]<br/>class = Radiant>, fillcolor="#399de506"] ;
114 -> 115 ;
116 [label=<radiant_team_glicko sigma &le; 222.475<br/>gini = 0.4999<br/>samples = 2171<br/>value = [1073, 1098]<br/>class = Radiant>, fillcolor="#399de506"] ;
115 -> 116 ;
117 [label=<dire_team_glicko2 phi &le; 119.1<br/>gini = 0.4999<br/>samples = 2169<br/>value = [1071, 1098]<br/>class = Radiant>, fillcolor="#399de506"] ;
116 -> 117 ;
118 [label=<dire_team_glicko2 phi &le; 76.23<br/>gini = 0.4999<br/>samples = 2167<br/>value = [1069, 1098]<br/>class = Radiant>, fillcolor="#399de507"] ;
117 -> 118 ;
119 [label=<dire_team_glicko2 phi &le; 46.875<br/>gini = 0.4999<br/>samples = 2157<br/>value = [1066, 1091]<br/>class = Radiant>, fillcolor="#399de506"] ;
118 -> 119 ;
120 [label=<dire_team_glicko2 phi &le; 46.03<br/>gini = 0.4998<br/>samples = 2021<br/>value = [991, 1030]<br/>class = Radiant>, fillcolor="#399de50a"] ;
119 -> 120 ;
121 [label=<radiant_team_glicko sigma &le; 191.865<br/>gini = 0.4999<br/>samples = 1929<br/>value = [953, 976]<br/>class = Radiant>, fillcolor="#399de506"] ;
120 -> 121 ;
122 [label=<dire_team_glicko2 rating &le; 1803.5649<br/>gini = 0.5<br/>samples = 1906<br/>value = [944, 962]<br/>class = Radiant>, fillcolor="#399de505"] ;
121 -> 122 ;
123 [label=<dire_team_glicko2 phi &le; 45.88<br/>gini = 0.5<br/>samples = 1871<br/>value = [929, 942]<br/>class = Radiant>, fillcolor="#399de504"] ;
122 -> 123 ;
124 [label=<radiant_team_wins &le; 35.5<br/>gini = 0.5<br/>samples = 1837<br/>value = [910, 927]<br/>class = Radiant>, fillcolor="#399de505"] ;
123 -> 124 ;
125 [label=<dire_team_elo avg active &le; 1254.0701<br/>gini = 0.5<br/>samples = 1720<br/>value = [856, 864]<br/>class = Radiant>, fillcolor="#399de502"] ;
124 -> 125 ;
126 [label=<dire_team_delta week &le; -3.75<br/>gini = 0.5<br/>samples = 1642<br/>value = [813, 829]<br/>class = Radiant>, fillcolor="#399de505"] ;
125 -> 126 ;
127 [label=<dire_team_elo rating &le; 1279.4551<br/>gini = 0.4992<br/>samples = 77<br/>value = [37, 40]<br/>class = Radiant>, fillcolor="#399de513"] ;
126 -> 127 ;
128 [label=<gini = 0.497<br/>samples = 26<br/>value = [12, 14]<br/>class = Radiant>, fillcolor="#399de524"] ;
127 -> 128 ;
129 [label=<gini = 0.4998<br/>samples = 51<br/>value = [25, 26]<br/>class = Radiant>, fillcolor="#399de50a"] ;
127 -> 129 ;
130 [label=<dire_team_elo avg active &le; 1246.36<br/>gini = 0.5<br/>samples = 1565<br/>value = [776, 789]<br/>class = Radiant>, fillcolor="#399de504"] ;
126 -> 130 ;
131 [label=<dire_team_delta month &le; 39.15<br/>gini = 0.5<br/>samples = 1522<br/>value = [754, 768]<br/>class = Radiant>, fillcolor="#399de505"] ;
130 -> 131 ;
132 [label=<gini = 0.5<br/>samples = 1510<br/>value = [748, 762]<br/>class = Radiant>, fillcolor="#399de505"] ;
131 -> 132 ;
133 [label=<gini = 0.5<br/>samples = 12<br/>value = [6, 6]<br/>class = Dire>, fillcolor="#e5813900"] ;
131 -> 133 ;
134 [label=<gini = 0.4997<br/>samples = 43<br/>value = [22, 21]<br/>class = Dire>, fillcolor="#e581390c"] ;
130 -> 134 ;
135 [label=<dire_team_glicko sigma &le; 80.075<br/>gini = 0.4947<br/>samples = 78<br/>value = [43, 35]<br/>class = Dire>, fillcolor="#e581392f"] ;
125 -> 135 ;
136 [label=<gini = 0.4959<br/>samples = 33<br/>value = [18, 15]<br/>class = Dire>, fillcolor="#e581392a"] ;
135 -> 136 ;
137 [label=<gini = 0.4938<br/>samples = 45<br/>value = [25, 20]<br/>class = Dire>, fillcolor="#e5813933"] ;
135 -> 137 ;
138 [label=<dire_team_losses &le; 380.5<br/>gini = 0.497<br/>samples = 117<br/>value = [54, 63]<br/>class = Radiant>, fillcolor="#399de524"] ;
124 -> 138 ;
139 [label=<dire_team_losses &le; 108.0<br/>gini = 0.499<br/>samples = 111<br/>value = [53, 58]<br/>class = Radiant>, fillcolor="#399de516"] ;
138 -> 139 ;
140 [label=<dire_team_glicko2 rating &le; 1688.085<br/>gini = 0.5<br/>samples = 84<br/>value = [42, 42]<br/>class = Dire>, fillcolor="#e5813900"] ;
139 -> 140 ;
141 [label=<radiant_team_glicko2 phi &le; 52.145<br/>gini = 0.4997<br/>samples = 82<br/>value = [40, 42]<br/>class = Radiant>, fillcolor="#399de50c"] ;
140 -> 141 ;
142 [label=<dire_team_losses &le; 28.5<br/>gini = 0.4966<br/>samples = 61<br/>value = [28, 33]<br/>class = Radiant>, fillcolor="#399de527"] ;
141 -> 142 ;
143 [label=<radiant_team_elo avg active &le; 1007.745<br/>gini = 0.4946<br/>samples = 58<br/>value = [26, 32]<br/>class = Radiant>, fillcolor="#399de530"] ;
142 -> 143 ;
144 [label=<gini = 0.4918<br/>samples = 39<br/>value = [17, 22]<br/>class = Radiant>, fillcolor="#399de53a"] ;
143 -> 144 ;
145 [label=<gini = 0.4986<br/>samples = 19<br/>value = [9, 10]<br/>class = Radiant>, fillcolor="#399de519"] ;
143 -> 145 ;
146 [label=<gini = 0.4444<br/>samples = 3<br/>value = [2, 1]<br/>class = Dire>, fillcolor="#e581397f"] ;
142 -> 146 ;
147 [label=<gini = 0.4898<br/>samples = 21<br/>value = [12, 9]<br/>class = Dire>, fillcolor="#e5813940"] ;
141 -> 147 ;
148 [label=<gini = 0.0<br/>samples = 2<br/>value = [2, 0]<br/>class = Dire>, fillcolor="#e58139ff"] ;
140 -> 148 ;
149 [label=<radiant_team_elo rating &le; 853.555<br/>gini = 0.4829<br/>samples = 27<br/>value = [11, 16]<br/>class = Radiant>, fillcolor="#399de550"] ;
139 -> 149 ;
150 [label=<gini = 0.4444<br/>samples = 3<br/>value = [2, 1]<br/>class = Dire>, fillcolor="#e581397f"] ;
149 -> 150 ;
151 [label=<dire_team_wins &le; 212.5<br/>gini = 0.4688<br/>samples = 24<br/>value = [9, 15]<br/>class = Radiant>, fillcolor="#399de566"] ;
149 -> 151 ;
152 [label=<gini = 0.0<br/>samples = 2<br/>value = [0, 2]<br/>class = Radiant>, fillcolor="#399de5ff"] ;
151 -> 152 ;
153 [label=<radiant_team_elo monthly avg &le; 943.895<br/>gini = 0.4835<br/>samples = 22<br/>value = [9, 13]<br/>class = Radiant>, fillcolor="#399de54e"] ;
151 -> 153 ;
154 [label=<dire_team_elo monthly avg &le; 1367.58<br/>gini = 0.42<br/>samples = 10<br/>value = [3, 7]<br/>class = Radiant>, fillcolor="#399de592"] ;
153 -> 154 ;
155 [label=<gini = 0.48<br/>samples = 5<br/>value = [2, 3]<br/>class = Radiant>, fillcolor="#399de555"] ;
154 -> 155 ;
156 [label=<gini = 0.32<br/>samples = 5<br/>value = [1, 4]<br/>class = Radiant>, fillcolor="#399de5bf"] ;
154 -> 156 ;
157 [label=<dire_team_elo avg active &le; 1266.0<br/>gini = 0.5<br/>samples = 12<br/>value = [6, 6]<br/>class = Dire>, fillcolor="#e5813900"] ;
153 -> 157 ;
158 [label=<gini = 0.4444<br/>samples = 3<br/>value = [2, 1]<br/>class = Dire>, fillcolor="#e581397f"] ;
157 -> 158 ;
159 [label=<gini = 0.4938<br/>samples = 9<br/>value = [4, 5]<br/>class = Radiant>, fillcolor="#399de533"] ;
157 -> 159 ;
160 [label=<radiant_team_glicko mu &le; 1591.255<br/>gini = 0.2778<br/>samples = 6<br/>value = [1, 5]<br/>class = Radiant>, fillcolor="#399de5cc"] ;
138 -> 160 ;
161 [label=<gini = 0.0<br/>samples = 3<br/>value = [0, 3]<br/>class = Radiant>, fillcolor="#399de5ff"] ;
160 -> 161 ;
162 [label=<gini = 0.4444<br/>samples = 3<br/>value = [1, 2]<br/>class = Radiant>, fillcolor="#399de57f"] ;
160 -> 162 ;
163 [label=<radiant_team_delta week &le; 0.3<br/>gini = 0.4931<br/>samples = 34<br/>value = [19, 15]<br/>class = Dire>, fillcolor="#e5813936"] ;
123 -> 163 ;
164 [label=<gini = 0.498<br/>samples = 32<br/>value = [17, 15]<br/>class = Dire>, fillcolor="#e581391e"] ;
163 -> 164 ;
165 [label=<gini = 0.0<br/>samples = 2<br/>value = [2, 0]<br/>class = Dire>, fillcolor="#e58139ff"] ;
163 -> 165 ;
166 [label=<gini = 0.4898<br/>samples = 35<br/>value = [15, 20]<br/>class = Radiant>, fillcolor="#399de540"] ;
122 -> 166 ;
167 [label=<dire_team_elo rating &le; 663.985<br/>gini = 0.4764<br/>samples = 23<br/>value = [9, 14]<br/>class = Radiant>, fillcolor="#399de55b"] ;
121 -> 167 ;
168 [label=<gini = 0.4898<br/>samples = 21<br/>value = [9, 12]<br/>class = Radiant>, fillcolor="#399de540"] ;
167 -> 168 ;
169 [label=<gini = 0.0<br/>samples = 2<br/>value = [0, 2]<br/>class = Radiant>, fillcolor="#399de5ff"] ;
167 -> 169 ;
170 [label=<radiant_team_wins &le; 35.5<br/>gini = 0.4849<br/>samples = 92<br/>value = [38, 54]<br/>class = Radiant>, fillcolor="#399de54c"] ;
120 -> 170 ;
171 [label=<dire_team_glicko2 mu &le; 1726.14<br/>gini = 0.4791<br/>samples = 88<br/>value = [35, 53]<br/>class = Radiant>, fillcolor="#399de557"] ;
170 -> 171 ;
172 [label=<gini = 0.4986<br/>samples = 19<br/>value = [9, 10]<br/>class = Radiant>, fillcolor="#399de519"] ;
171 -> 172 ;
173 [label=<dire_team_delta month &le; 49.15<br/>gini = 0.4696<br/>samples = 69<br/>value = [26, 43]<br/>class = Radiant>, fillcolor="#399de565"] ;
171 -> 173 ;
174 [label=<gini = 0.4444<br/>samples = 24<br/>value = [8, 16]<br/>class = Radiant>, fillcolor="#399de57f"] ;
173 -> 174 ;
175 [label=<gini = 0.48<br/>samples = 45<br/>value = [18, 27]<br/>class = Radiant>, fillcolor="#399de555"] ;
173 -> 175 ;
176 [label=<gini = 0.375<br/>samples = 4<br/>value = [3, 1]<br/>class = Dire>, fillcolor="#e58139aa"] ;
170 -> 176 ;
177 [label=<radiant_team_elo avg active &le; 433.895<br/>gini = 0.4947<br/>samples = 136<br/>value = [75, 61]<br/>class = Dire>, fillcolor="#e5813930"] ;
119 -> 177 ;
178 [label=<dire_team_delta week &le; -0.3<br/>gini = 0.4979<br/>samples = 122<br/>value = [65, 57]<br/>class = Dire>, fillcolor="#e581391f"] ;
177 -> 178 ;
179 [label=<dire_team_glicko mu &le; 1746.02<br/>gini = 0.4444<br/>samples = 9<br/>value = [3, 6]<br/>class = Radiant>, fillcolor="#399de57f"] ;
178 -> 179 ;
180 [label=<gini = 0.4444<br/>samples = 3<br/>value = [1, 2]<br/>class = Radiant>, fillcolor="#399de57f"] ;
179 -> 180 ;
181 [label=<gini = 0.4444<br/>samples = 6<br/>value = [2, 4]<br/>class = Radiant>, fillcolor="#399de57f"] ;
179 -> 181 ;
182 [label=<dire_team_glicko sigma &le; 145.26<br/>gini = 0.4953<br/>samples = 113<br/>value = [62, 51]<br/>class = Dire>, fillcolor="#e581392d"] ;
178 -> 182 ;
183 [label=<dire_team_glicko rating &le; 1313.61<br/>gini = 0.4995<br/>samples = 66<br/>value = [34, 32]<br/>class = Dire>, fillcolor="#e581390f"] ;
182 -> 183 ;
184 [label=<gini = 0.498<br/>samples = 32<br/>value = [17, 15]<br/>class = Dire>, fillcolor="#e581391e"] ;
183 -> 184 ;
185 [label=<gini = 0.5<br/>samples = 34<br/>value = [17, 17]<br/>class = Dire>, fillcolor="#e5813900"] ;
183 -> 185 ;
186 [label=<dire_team_elo avg active &le; 1112.6849<br/>gini = 0.4817<br/>samples = 47<br/>value = [28, 19]<br/>class = Dire>, fillcolor="#e5813952"] ;
182 -> 186 ;
187 [label=<gini = 0.375<br/>samples = 4<br/>value = [3, 1]<br/>class = Dire>, fillcolor="#e58139aa"] ;
186 -> 187 ;
188 [label=<gini = 0.4867<br/>samples = 43<br/>value = [25, 18]<br/>class = Dire>, fillcolor="#e5813947"] ;
186 -> 188 ;
189 [label=<dire_team_elo rating &le; 1015.35<br/>gini = 0.4082<br/>samples = 14<br/>value = [10, 4]<br/>class = Dire>, fillcolor="#e5813999"] ;
177 -> 189 ;
190 [label=<radiant_team_losses &le; 100.0<br/>gini = 0.4444<br/>samples = 3<br/>value = [1, 2]<br/>class = Radiant>, fillcolor="#399de57f"] ;
189 -> 190 ;
191 [label=<gini = 0.0<br/>samples = 1<br/>value = [1, 0]<br/>class = Dire>, fillcolor="#e58139ff"] ;
190 -> 191 ;
192 [label=<gini = 0.0<br/>samples = 2<br/>value = [0, 2]<br/>class = Radiant>, fillcolor="#399de5ff"] ;
190 -> 192 ;
193 [label=<radiant_team_elo avg active &le; 1076.875<br/>gini = 0.2975<br/>samples = 11<br/>value = [9, 2]<br/>class = Dire>, fillcolor="#e58139c6"] ;
189 -> 193 ;
194 [label=<dire_team_losses &le; 200.5<br/>gini = 0.2188<br/>samples = 8<br/>value = [7, 1]<br/>class = Dire>, fillcolor="#e58139db"] ;
193 -> 194 ;
195 [label=<gini = 0.0<br/>samples = 2<br/>value = [2, 0]<br/>class = Dire>, fillcolor="#e58139ff"] ;
194 -> 195 ;
196 [label=<gini = 0.2778<br/>samples = 6<br/>value = [5, 1]<br/>class = Dire>, fillcolor="#e58139cc"] ;
194 -> 196 ;
197 [label=<gini = 0.4444<br/>samples = 3<br/>value = [2, 1]<br/>class = Dire>, fillcolor="#e581397f"] ;
193 -> 197 ;
198 [label=<radiant_team_glicko rating &le; 491.795<br/>gini = 0.42<br/>samples = 10<br/>value = [3, 7]<br/>class = Radiant>, fillcolor="#399de592"] ;
118 -> 198 ;
199 [label=<dire_team_delta week &le; 9.85<br/>gini = 0.3457<br/>samples = 9<br/>value = [2, 7]<br/>class = Radiant>, fillcolor="#399de5b6"] ;
198 -> 199 ;
200 [label=<dire_team_wins &le; 11.5<br/>gini = 0.2449<br/>samples = 7<br/>value = [1, 6]<br/>class = Radiant>, fillcolor="#399de5d4"] ;
199 -> 200 ;
201 [label=<gini = 0.0<br/>samples = 3<br/>value = [0, 3]<br/>class = Radiant>, fillcolor="#399de5ff"] ;
200 -> 201 ;
202 [label=<gini = 0.375<br/>samples = 4<br/>value = [1, 3]<br/>class = Radiant>, fillcolor="#399de5aa"] ;
200 -> 202 ;
203 [label=<gini = 0.5<br/>samples = 2<br/>value = [1, 1]<br/>class = Dire>, fillcolor="#e5813900"] ;
199 -> 203 ;
204 [label=<gini = 0.0<br/>samples = 1<br/>value = [1, 0]<br/>class = Dire>, fillcolor="#e58139ff"] ;
198 -> 204 ;
205 [label=<gini = 0.0<br/>samples = 2<br/>value = [2, 0]<br/>class = Dire>, fillcolor="#e58139ff"] ;
117 -> 205 ;
206 [label=<gini = 0.0<br/>samples = 2<br/>value = [2, 0]<br/>class = Dire>, fillcolor="#e58139ff"] ;
116 -> 206 ;
207 [label=<gini = 0.0<br/>samples = 3<br/>value = [0, 3]<br/>class = Radiant>, fillcolor="#399de5ff"] ;
115 -> 207 ;
208 [label=<dire_team_glicko sigma &le; 23.065<br/>gini = 0.2449<br/>samples = 7<br/>value = [6, 1]<br/>class = Dire>, fillcolor="#e58139d4"] ;
114 -> 208 ;
209 [label=<gini = 0.4444<br/>samples = 3<br/>value = [2, 1]<br/>class = Dire>, fillcolor="#e581397f"] ;
208 -> 209 ;
210 [label=<gini = 0.0<br/>samples = 4<br/>value = [4, 0]<br/>class = Dire>, fillcolor="#e58139ff"] ;
208 -> 210 ;
211 [label=<radiant_team_glicko rating &le; 1179.575<br/>gini = 0.4043<br/>samples = 64<br/>value = [18, 46]<br/>class = Radiant>, fillcolor="#399de59b"] ;
1 -> 211 ;
212 [label=<radiant_team_glicko2 rating &le; 740.11<br/>gini = 0.3795<br/>samples = 55<br/>value = [14, 41]<br/>class = Radiant>, fillcolor="#399de5a8"] ;
211 -> 212 ;
213 [label=<gini = 0.3848<br/>samples = 50<br/>value = [13, 37]<br/>class = Radiant>, fillcolor="#399de5a5"] ;
212 -> 213 ;
214 [label=<gini = 0.32<br/>samples = 5<br/>value = [1, 4]<br/>class = Radiant>, fillcolor="#399de5bf"] ;
212 -> 214 ;
215 [label=<gini = 0.4938<br/>samples = 9<br/>value = [4, 5]<br/>class = Radiant>, fillcolor="#399de533"] ;
211 -> 215 ;
216 [label=<dire_team_delta month &le; -128.65<br/>gini = 0.4953<br/>samples = 2450<br/>value = [1344, 1106]<br/>class = Dire>, fillcolor="#e581392d"] ;
0 -> 216 [labeldistance=2.5, labelangle=-45, headlabel="False"] ;
217 [label=<radiant_team_elo monthly avg &le; 1246.5901<br/>gini = 0.48<br/>samples = 85<br/>value = [34, 51]<br/>class = Radiant>, fillcolor="#399de555"] ;
216 -> 217 ;
218 [label=<radiant_team_glicko sigma &le; 152.395<br/>gini = 0.3944<br/>samples = 37<br/>value = [10, 27]<br/>class = Radiant>, fillcolor="#399de5a1"] ;
217 -> 218 ;
219 [label=<radiant_team_glicko rating &le; 1542.1299<br/>gini = 0.4444<br/>samples = 30<br/>value = [10, 20]<br/>class = Radiant>, fillcolor="#399de57f"] ;
218 -> 219 ;
220 [label=<radiant_team_elo monthly avg &le; 1084.75<br/>gini = 0.4978<br/>samples = 15<br/>value = [7, 8]<br/>class = Radiant>, fillcolor="#399de520"] ;
219 -> 220 ;
221 [label=<radiant_team_glicko2 mu &le; 1605.105<br/>gini = 0.5<br/>samples = 14<br/>value = [7, 7]<br/>class = Dire>, fillcolor="#e5813900"] ;
220 -> 221 ;
222 [label=<gini = 0.5<br/>samples = 2<br/>value = [1, 1]<br/>class = Dire>, fillcolor="#e5813900"] ;
221 -> 222 ;
223 [label=<radiant_team_glicko2 mu &le; 1654.795<br/>gini = 0.5<br/>samples = 12<br/>value = [6, 6]<br/>class = Dire>, fillcolor="#e5813900"] ;
221 -> 223 ;
224 [label=<gini = 0.5<br/>samples = 2<br/>value = [1, 1]<br/>class = Dire>, fillcolor="#e5813900"] ;
223 -> 224 ;
225 [label=<radiant_team_glicko2 mu &le; 1765.4<br/>gini = 0.5<br/>samples = 10<br/>value = [5, 5]<br/>class = Dire>, fillcolor="#e5813900"] ;
223 -> 225 ;
226 [label=<gini = 0.5<br/>samples = 4<br/>value = [2, 2]<br/>class = Dire>, fillcolor="#e5813900"] ;
225 -> 226 ;
227 [label=<gini = 0.5<br/>samples = 6<br/>value = [3, 3]<br/>class = Dire>, fillcolor="#e5813900"] ;
225 -> 227 ;
228 [label=<gini = 0.0<br/>samples = 1<br/>value = [0, 1]<br/>class = Radiant>, fillcolor="#399de5ff"] ;
220 -> 228 ;
229 [label=<radiant_team_glicko mu &le; 1927.755<br/>gini = 0.32<br/>samples = 15<br/>value = [3, 12]<br/>class = Radiant>, fillcolor="#399de5bf"] ;
219 -> 229 ;
230 [label=<radiant_team_delta month &le; 50.1<br/>gini = 0.2604<br/>samples = 13<br/>value = [2, 11]<br/>class = Radiant>, fillcolor="#399de5d1"] ;
229 -> 230 ;
231 [label=<radiant_team_glicko2 mu &le; 1743.325<br/>gini = 0.2975<br/>samples = 11<br/>value = [2, 9]<br/>class = Radiant>, fillcolor="#399de5c6"] ;
230 -> 231 ;
232 [label=<gini = 0.0<br/>samples = 1<br/>value = [0, 1]<br/>class = Radiant>, fillcolor="#399de5ff"] ;
231 -> 232 ;
233 [label=<dire_team_elo monthly avg &le; 1136.615<br/>gini = 0.32<br/>samples = 10<br/>value = [2, 8]<br/>class = Radiant>, fillcolor="#399de5bf"] ;
231 -> 233 ;
234 [label=<gini = 0.375<br/>samples = 4<br/>value = [1, 3]<br/>class = Radiant>, fillcolor="#399de5aa"] ;
233 -> 234 ;
235 [label=<gini = 0.2778<br/>samples = 6<br/>value = [1, 5]<br/>class = Radiant>, fillcolor="#399de5cc"] ;
233 -> 235 ;
236 [label=<gini = 0.0<br/>samples = 2<br/>value = [0, 2]<br/>class = Radiant>, fillcolor="#399de5ff"] ;
230 -> 236 ;
237 [label=<gini = 0.5<br/>samples = 2<br/>value = [1, 1]<br/>class = Dire>, fillcolor="#e5813900"] ;
229 -> 237 ;
238 [label=<gini = 0.0<br/>samples = 7<br/>value = [0, 7]<br/>class = Radiant>, fillcolor="#399de5ff"] ;
218 -> 238 ;
239 [label=<dire_team_glicko sigma &le; 113.885<br/>gini = 0.5<br/>samples = 48<br/>value = [24, 24]<br/>class = Dire>, fillcolor="#e5813900"] ;
217 -> 239 ;
240 [label=<gini = 0.0<br/>samples = 2<br/>value = [0, 2]<br/>class = Radiant>, fillcolor="#399de5ff"] ;
239 -> 240 ;
241 [label=<radiant_team_elo monthly avg &le; 1413.1<br/>gini = 0.4991<br/>samples = 46<br/>value = [24, 22]<br/>class = Dire>, fillcolor="#e5813915"] ;
239 -> 241 ;
242 [label=<radiant_team_delta week &le; -4.25<br/>gini = 0.487<br/>samples = 31<br/>value = [18, 13]<br/>class = Dire>, fillcolor="#e5813947"] ;
241 -> 242 ;
243 [label=<radiant_team_wins &le; 603.0<br/>gini = 0.4911<br/>samples = 30<br/>value = [17, 13]<br/>class = Dire>, fillcolor="#e581393c"] ;
242 -> 243 ;
244 [label=<radiant_team_glicko mu &le; 1986.98<br/>gini = 0.5<br/>samples = 16<br/>value = [8, 8]<br/>class = Dire>, fillcolor="#e5813900"] ;
243 -> 244 ;
245 [label=<gini = 0.5<br/>samples = 2<br/>value = [1, 1]<br/>class = Dire>, fillcolor="#e5813900"] ;
244 -> 245 ;
246 [label=<radiant_team_glicko2 phi &le; 44.235<br/>gini = 0.5<br/>samples = 14<br/>value = [7, 7]<br/>class = Dire>, fillcolor="#e5813900"] ;
244 -> 246 ;
247 [label=<gini = 0.5<br/>samples = 12<br/>value = [6, 6]<br/>class = Dire>, fillcolor="#e5813900"] ;
246 -> 247 ;
248 [label=<gini = 0.5<br/>samples = 2<br/>value = [1, 1]<br/>class = Dire>, fillcolor="#e5813900"] ;
246 -> 248 ;
249 [label=<radiant_team_elo rating &le; 1296.455<br/>gini = 0.4592<br/>samples = 14<br/>value = [9, 5]<br/>class = Dire>, fillcolor="#e5813971"] ;
243 -> 249 ;
250 [label=<gini = 0.48<br/>samples = 5<br/>value = [3, 2]<br/>class = Dire>, fillcolor="#e5813955"] ;
249 -> 250 ;
251 [label=<gini = 0.4444<br/>samples = 9<br/>value = [6, 3]<br/>class = Dire>, fillcolor="#e581397f"] ;
249 -> 251 ;
252 [label=<gini = 0.0<br/>samples = 1<br/>value = [1, 0]<br/>class = Dire>, fillcolor="#e58139ff"] ;
242 -> 252 ;
253 [label=<radiant_team_delta week &le; -93.75<br/>gini = 0.48<br/>samples = 15<br/>value = [6, 9]<br/>class = Radiant>, fillcolor="#399de555"] ;
241 -> 253 ;
254 [label=<gini = 0.4898<br/>samples = 14<br/>value = [6, 8]<br/>class = Radiant>, fillcolor="#399de540"] ;
253 -> 254 ;
255 [label=<gini = 0.0<br/>samples = 1<br/>value = [0, 1]<br/>class = Radiant>, fillcolor="#399de5ff"] ;
253 -> 255 ;
256 [label=<dire_team_delta week &le; 0.85<br/>gini = 0.4942<br/>samples = 2365<br/>value = [1310, 1055]<br/>class = Dire>, fillcolor="#e5813932"] ;
216 -> 256 ;
257 [label=<radiant_team_wins &le; 198.0<br/>gini = 0.4901<br/>samples = 1771<br/>value = [1010, 761]<br/>class = Dire>, fillcolor="#e581393f"] ;
256 -> 257 ;
258 [label=<radiant_team_elo monthly avg &le; 1083.1899<br/>gini = 0.4983<br/>samples = 612<br/>value = [324, 288]<br/>class = Dire>, fillcolor="#e581391c"] ;
257 -> 258 ;
259 [label=<dire_team_glicko2 mu &le; 1632.8149<br/>gini = 0.4706<br/>samples = 198<br/>value = [123, 75]<br/>class = Dire>, fillcolor="#e5813964"] ;
258 -> 259 ;
260 [label=<radiant_team_glicko sigma &le; 138.15<br/>gini = 0.4964<br/>samples = 129<br/>value = [70, 59]<br/>class = Dire>, fillcolor="#e5813928"] ;
259 -> 260 ;
261 [label=<dire_team_losses &le; 15.0<br/>gini = 0.4875<br/>samples = 114<br/>value = [66, 48]<br/>class = Dire>, fillcolor="#e5813946"] ;
260 -> 261 ;
262 [label=<radiant_team_glicko2 mu &le; 1639.15<br/>gini = 0.4745<br/>samples = 93<br/>value = [57, 36]<br/>class = Dire>, fillcolor="#e581395e"] ;
261 -> 262 ;
263 [label=<radiant_team_wins &le; 11.0<br/>gini = 0.3496<br/>samples = 31<br/>value = [24, 7]<br/>class = Dire>, fillcolor="#e58139b5"] ;
262 -> 263 ;
264 [label=<gini = 0.0<br/>samples = 5<br/>value = [5, 0]<br/>class = Dire>, fillcolor="#e58139ff"] ;
263 -> 264 ;
265 [label=<dire_team_losses &le; 6.5<br/>gini = 0.3935<br/>samples = 26<br/>value = [19, 7]<br/>class = Dire>, fillcolor="#e58139a1"] ;
263 -> 265 ;
266 [label=<radiant_team_losses &le; 18.0<br/>gini = 0.4132<br/>samples = 24<br/>value = [17, 7]<br/>class = Dire>, fillcolor="#e5813996"] ;
265 -> 266 ;
267 [label=<gini = 0.5<br/>samples = 2<br/>value = [1, 1]<br/>class = Dire>, fillcolor="#e5813900"] ;
266 -> 267 ;
268 [label=<radiant_team_glicko rating &le; 1326.985<br/>gini = 0.3967<br/>samples = 22<br/>value = [16, 6]<br/>class = Dire>, fillcolor="#e581399f"] ;
266 -> 268 ;
269 [label=<radiant_team_glicko2 phi &le; 63.255<br/>gini = 0.4444<br/>samples = 6<br/>value = [4, 2]<br/>class = Dire>, fillcolor="#e581397f"] ;
268 -> 269 ;
270 [label=<gini = 0.4444<br/>samples = 3<br/>value = [2, 1]<br/>class = Dire>, fillcolor="#e581397f"] ;
269 -> 270 ;
271 [label=<gini = 0.4444<br/>samples = 3<br/>value = [2, 1]<br/>class = Dire>, fillcolor="#e581397f"] ;
269 -> 271 ;
272 [label=<gini = 0.375<br/>samples = 16<br/>value = [12, 4]<br/>class = Dire>, fillcolor="#e58139aa"] ;
268 -> 272 ;
273 [label=<gini = 0.0<br/>samples = 2<br/>value = [2, 0]<br/>class = Dire>, fillcolor="#e58139ff"] ;
265 -> 273 ;
274 [label=<radiant_team_elo avg active &le; 1021.565<br/>gini = 0.4979<br/>samples = 62<br/>value = [33, 29]<br/>class = Dire>, fillcolor="#e581391f"] ;
262 -> 274 ;
275 [label=<gini = 0.0<br/>samples = 1<br/>value = [0, 1]<br/>class = Radiant>, fillcolor="#399de5ff"] ;
274 -> 275 ;
276 [label=<radiant_team_glicko sigma &le; 123.51<br/>gini = 0.4966<br/>samples = 61<br/>value = [33, 28]<br/>class = Dire>, fillcolor="#e5813927"] ;
274 -> 276 ;
277 [label=<dire_team_glicko mu &le; 843.85<br/>gini = 0.5<br/>samples = 30<br/>value = [15, 15]<br/>class = Dire>, fillcolor="#e5813900"] ;
276 -> 277 ;
278 [label=<radiant_team_losses &le; 31.5<br/>gini = 0.5<br/>samples = 26<br/>value = [13, 13]<br/>class = Dire>, fillcolor="#e5813900"] ;
277 -> 278 ;
279 [label=<gini = 0.5<br/>samples = 8<br/>value = [4, 4]<br/>class = Dire>, fillcolor="#e5813900"] ;
278 -> 279 ;
280 [label=<gini = 0.5<br/>samples = 18<br/>value = [9, 9]<br/>class = Dire>, fillcolor="#e5813900"] ;
278 -> 280 ;
281 [label=<gini = 0.5<br/>samples = 4<br/>value = [2, 2]<br/>class = Dire>, fillcolor="#e5813900"] ;
277 -> 281 ;
282 [label=<gini = 0.487<br/>samples = 31<br/>value = [18, 13]<br/>class = Dire>, fillcolor="#e5813947"] ;
276 -> 282 ;
283 [label=<radiant_team_wins &le; 11.5<br/>gini = 0.4898<br/>samples = 21<br/>value = [9, 12]<br/>class = Radiant>, fillcolor="#399de540"] ;
261 -> 283 ;
284 [label=<gini = 0.0<br/>samples = 3<br/>value = [0, 3]<br/>class = Radiant>, fillcolor="#399de5ff"] ;
283 -> 284 ;
285 [label=<radiant_team_losses &le; 25.5<br/>gini = 0.5<br/>samples = 18<br/>value = [9, 9]<br/>class = Dire>, fillcolor="#e5813900"] ;
283 -> 285 ;
286 [label=<radiant_team_elo monthly avg &le; 1002.63<br/>gini = 0.32<br/>samples = 5<br/>value = [4, 1]<br/>class = Dire>, fillcolor="#e58139bf"] ;
285 -> 286 ;
287 [label=<gini = 0.375<br/>samples = 4<br/>value = [3, 1]<br/>class = Dire>, fillcolor="#e58139aa"] ;
286 -> 287 ;
288 [label=<gini = 0.0<br/>samples = 1<br/>value = [1, 0]<br/>class = Dire>, fillcolor="#e58139ff"] ;
286 -> 288 ;
289 [label=<dire_team_glicko2 phi &le; 60.86<br/>gini = 0.4734<br/>samples = 13<br/>value = [5, 8]<br/>class = Radiant>, fillcolor="#399de560"] ;
285 -> 289 ;
290 [label=<radiant_team_wins &le; 30.5<br/>gini = 0.5<br/>samples = 10<br/>value = [5, 5]<br/>class = Dire>, fillcolor="#e5813900"] ;
289 -> 290 ;
291 [label=<gini = 0.0<br/>samples = 2<br/>value = [2, 0]<br/>class = Dire>, fillcolor="#e58139ff"] ;
290 -> 291 ;
292 [label=<radiant_team_glicko2 mu &le; 1658.41<br/>gini = 0.4688<br/>samples = 8<br/>value = [3, 5]<br/>class = Radiant>, fillcolor="#399de566"] ;
290 -> 292 ;
293 [label=<gini = 0.0<br/>samples = 2<br/>value = [0, 2]<br/>class = Radiant>, fillcolor="#399de5ff"] ;
292 -> 293 ;
294 [label=<dire_team_glicko2 rating &le; 1444.705<br/>gini = 0.5<br/>samples = 6<br/>value = [3, 3]<br/>class = Dire>, fillcolor="#e5813900"] ;
292 -> 294 ;
295 [label=<gini = 0.5<br/>samples = 2<br/>value = [1, 1]<br/>class = Dire>, fillcolor="#e5813900"] ;
294 -> 295 ;
296 [label=<gini = 0.5<br/>samples = 4<br/>value = [2, 2]<br/>class = Dire>, fillcolor="#e5813900"] ;
294 -> 296 ;
297 [label=<gini = 0.0<br/>samples = 3<br/>value = [0, 3]<br/>class = Radiant>, fillcolor="#399de5ff"] ;
289 -> 297 ;
298 [label=<radiant_team_glicko2 phi &le; 107.835<br/>gini = 0.3911<br/>samples = 15<br/>value = [4, 11]<br/>class = Radiant>, fillcolor="#399de5a2"] ;
260 -> 298 ;
299 [label=<dire_team_glicko rating &le; 385.21<br/>gini = 0.2604<br/>samples = 13<br/>value = [2, 11]<br/>class = Radiant>, fillcolor="#399de5d1"] ;
298 -> 299 ;
300 [label=<radiant_team_elo avg active &le; 989.54<br/>gini = 0.3457<br/>samples = 9<br/>value = [2, 7]<br/>class = Radiant>, fillcolor="#399de5b6"] ;
299 -> 300 ;
301 [label=<gini = 0.0<br/>samples = 1<br/>value = [0, 1]<br/>class = Radiant>, fillcolor="#399de5ff"] ;
300 -> 301 ;
302 [label=<radiant_team_glicko sigma &le; 149.76<br/>gini = 0.375<br/>samples = 8<br/>value = [2, 6]<br/>class = Radiant>, fillcolor="#399de5aa"] ;
300 -> 302 ;
303 [label=<gini = 0.375<br/>samples = 4<br/>value = [1, 3]<br/>class = Radiant>, fillcolor="#399de5aa"] ;
302 -> 303 ;
304 [label=<gini = 0.375<br/>samples = 4<br/>value = [1, 3]<br/>class = Radiant>, fillcolor="#399de5aa"] ;
302 -> 304 ;
305 [label=<gini = 0.0<br/>samples = 4<br/>value = [0, 4]<br/>class = Radiant>, fillcolor="#399de5ff"] ;
299 -> 305 ;
306 [label=<gini = 0.0<br/>samples = 2<br/>value = [2, 0]<br/>class = Dire>, fillcolor="#e58139ff"] ;
298 -> 306 ;
307 [label=<dire_team_elo rating &le; 1336.9399<br/>gini = 0.3562<br/>samples = 69<br/>value = [53, 16]<br/>class = Dire>, fillcolor="#e58139b2"] ;
259 -> 307 ;
308 [label=<dire_team_glicko sigma &le; 187.87<br/>gini = 0.2956<br/>samples = 61<br/>value = [50, 11]<br/>class = Dire>, fillcolor="#e58139c7"] ;
307 -> 308 ;
309 [label=<dire_team_delta week &le; -4.35<br/>gini = 0.2778<br/>samples = 60<br/>value = [50, 10]<br/>class = Dire>, fillcolor="#e58139cc"] ;
308 -> 309 ;
310 [label=<radiant_team_glicko2 phi &le; 55.895<br/>gini = 0.4132<br/>samples = 24<br/>value = [17, 7]<br/>class = Dire>, fillcolor="#e5813996"] ;
309 -> 310 ;
311 [label=<radiant_team_wins &le; 46.5<br/>gini = 0.5<br/>samples = 12<br/>value = [6, 6]<br/>class = Dire>, fillcolor="#e5813900"] ;
310 -> 311 ;
312 [label=<dire_team_elo rating &le; 1300.8101<br/>gini = 0.4938<br/>samples = 9<br/>value = [4, 5]<br/>class = Radiant>, fillcolor="#399de533"] ;
311 -> 312 ;
313 [label=<radiant_team_wins &le; 34.5<br/>gini = 0.5<br/>samples = 8<br/>value = [4, 4]<br/>class = Dire>, fillcolor="#e5813900"] ;
312 -> 313 ;
314 [label=<dire_team_elo avg active &le; 1202.535<br/>gini = 0.48<br/>samples = 5<br/>value = [3, 2]<br/>class = Dire>, fillcolor="#e5813955"] ;
313 -> 314 ;
315 [label=<gini = 0.5<br/>samples = 2<br/>value = [1, 1]<br/>class = Dire>, fillcolor="#e5813900"] ;
314 -> 315 ;
316 [label=<gini = 0.4444<br/>samples = 3<br/>value = [2, 1]<br/>class = Dire>, fillcolor="#e581397f"] ;
314 -> 316 ;
317 [label=<dire_team_delta month &le; 14.4<br/>gini = 0.4444<br/>samples = 3<br/>value = [1, 2]<br/>class = Radiant>, fillcolor="#399de57f"] ;
313 -> 317 ;
318 [label=<gini = 0.0<br/>samples = 1<br/>value = [0, 1]<br/>class = Radiant>, fillcolor="#399de5ff"] ;
317 -> 318 ;
319 [label=<gini = 0.5<br/>samples = 2<br/>value = [1, 1]<br/>class = Dire>, fillcolor="#e5813900"] ;
317 -> 319 ;
320 [label=<gini = 0.0<br/>samples = 1<br/>value = [0, 1]<br/>class = Radiant>, fillcolor="#399de5ff"] ;
312 -> 320 ;
321 [label=<gini = 0.4444<br/>samples = 3<br/>value = [2, 1]<br/>class = Dire>, fillcolor="#e581397f"] ;
311 -> 321 ;
322 [label=<dire_team_delta week &le; -40.5<br/>gini = 0.1528<br/>samples = 12<br/>value = [11, 1]<br/>class = Dire>, fillcolor="#e58139e8"] ;
310 -> 322 ;
323 [label=<gini = 0.4444<br/>samples = 3<br/>value = [2, 1]<br/>class = Dire>, fillcolor="#e581397f"] ;
322 -> 323 ;
324 [label=<gini = 0.0<br/>samples = 9<br/>value = [9, 0]<br/>class = Dire>, fillcolor="#e58139ff"] ;
322 -> 324 ;
325 [label=<radiant_team_wins &le; 7.5<br/>gini = 0.1528<br/>samples = 36<br/>value = [33, 3]<br/>class = Dire>, fillcolor="#e58139e8"] ;
309 -> 325 ;
326 [label=<gini = 0.5<br/>samples = 2<br/>value = [1, 1]<br/>class = Dire>, fillcolor="#e5813900"] ;
325 -> 326 ;
327 [label=<radiant_team_glicko sigma &le; 122.47<br/>gini = 0.1107<br/>samples = 34<br/>value = [32, 2]<br/>class = Dire>, fillcolor="#e58139ef"] ;
325 -> 327 ;
328 [label=<dire_team_glicko2 mu &le; 1634.75<br/>gini = 0.2449<br/>samples = 14<br/>value = [12, 2]<br/>class = Dire>, fillcolor="#e58139d4"] ;
327 -> 328 ;
329 [label=<gini = 0.5<br/>samples = 2<br/>value = [1, 1]<br/>class = Dire>, fillcolor="#e5813900"] ;
328 -> 329 ;
330 [label=<radiant_team_glicko2 mu &le; 1674.0901<br/>gini = 0.1528<br/>samples = 12<br/>value = [11, 1]<br/>class = Dire>, fillcolor="#e58139e8"] ;
328 -> 330 ;
331 [label=<gini = 0.0<br/>samples = 6<br/>value = [6, 0]<br/>class = Dire>, fillcolor="#e58139ff"] ;
330 -> 331 ;
332 [label=<dire_team_glicko rating &le; 1579.8149<br/>gini = 0.2778<br/>samples = 6<br/>value = [5, 1]<br/>class = Dire>, fillcolor="#e58139cc"] ;
330 -> 332 ;
333 [label=<gini = 0.0<br/>samples = 1<br/>value = [1, 0]<br/>class = Dire>, fillcolor="#e58139ff"] ;
332 -> 333 ;
334 [label=<gini = 0.32<br/>samples = 5<br/>value = [4, 1]<br/>class = Dire>, fillcolor="#e58139bf"] ;
332 -> 334 ;
335 [label=<gini = 0.0<br/>samples = 20<br/>value = [20, 0]<br/>class = Dire>, fillcolor="#e58139ff"] ;
327 -> 335 ;
336 [label=<gini = 0.0<br/>samples = 1<br/>value = [0, 1]<br/>class = Radiant>, fillcolor="#399de5ff"] ;
308 -> 336 ;
337 [label=<radiant_team_delta week &le; -0.95<br/>gini = 0.4688<br/>samples = 8<br/>value = [3, 5]<br/>class = Radiant>, fillcolor="#399de566"] ;
307 -> 337 ;
338 [label=<gini = 0.0<br/>samples = 2<br/>value = [2, 0]<br/>class = Dire>, fillcolor="#e58139ff"] ;
337 -> 338 ;
339 [label=<dire_team_elo rating &le; 1349.5249<br/>gini = 0.2778<br/>samples = 6<br/>value = [1, 5]<br/>class = Radiant>, fillcolor="#399de5cc"] ;
337 -> 339 ;
340 [label=<radiant_team_glicko sigma &le; 145.1<br/>gini = 0.4444<br/>samples = 3<br/>value = [1, 2]<br/>class = Radiant>, fillcolor="#399de57f"] ;
339 -> 340 ;
341 [label=<gini = 0.0<br/>samples = 1<br/>value = [0, 1]<br/>class = Radiant>, fillcolor="#399de5ff"] ;
340 -> 341 ;
342 [label=<gini = 0.5<br/>samples = 2<br/>value = [1, 1]<br/>class = Dire>, fillcolor="#e5813900"] ;
340 -> 342 ;
343 [label=<gini = 0.0<br/>samples = 3<br/>value = [0, 3]<br/>class = Radiant>, fillcolor="#399de5ff"] ;
339 -> 343 ;
344 [label=<dire_team_delta week &le; -6.05<br/>gini = 0.4996<br/>samples = 414<br/>value = [201, 213]<br/>class = Radiant>, fillcolor="#399de50e"] ;
258 -> 344 ;
345 [label=<dire_team_elo monthly avg &le; 952.17<br/>gini = 0.4701<br/>samples = 45<br/>value = [28, 17]<br/>class = Dire>, fillcolor="#e5813964"] ;
344 -> 345 ;
346 [label=<radiant_team_wins &le; 54.0<br/>gini = 0.32<br/>samples = 5<br/>value = [1, 4]<br/>class = Radiant>, fillcolor="#399de5bf"] ;
345 -> 346 ;
347 [label=<gini = 0.5<br/>samples = 2<br/>value = [1, 1]<br/>class = Dire>, fillcolor="#e5813900"] ;
346 -> 347 ;
348 [label=<gini = 0.0<br/>samples = 3<br/>value = [0, 3]<br/>class = Radiant>, fillcolor="#399de5ff"] ;
346 -> 348 ;
349 [label=<dire_team_elo weekly avg &le; 1018.03<br/>gini = 0.4387<br/>samples = 40<br/>value = [27, 13]<br/>class = Dire>, fillcolor="#e5813984"] ;
345 -> 349 ;
350 [label=<gini = 0.0<br/>samples = 7<br/>value = [7, 0]<br/>class = Dire>, fillcolor="#e58139ff"] ;
349 -> 350 ;
351 [label=<radiant_team_glicko2 phi &le; 44.765<br/>gini = 0.4775<br/>samples = 33<br/>value = [20, 13]<br/>class = Dire>, fillcolor="#e5813959"] ;
349 -> 351 ;
352 [label=<dire_team_elo weekly avg &le; 1396.1899<br/>gini = 0.4132<br/>samples = 24<br/>value = [17, 7]<br/>class = Dire>, fillcolor="#e5813996"] ;
351 -> 352 ;
353 [label=<dire_team_delta week &le; -40.5<br/>gini = 0.4339<br/>samples = 22<br/>value = [15, 7]<br/>class = Dire>, fillcolor="#e5813988"] ;
352 -> 353 ;
354 [label=<gini = 0.4082<br/>samples = 7<br/>value = [5, 2]<br/>class = Dire>, fillcolor="#e5813999"] ;
353 -> 354 ;
355 [label=<radiant_team_delta week &le; -122.75<br/>gini = 0.4444<br/>samples = 15<br/>value = [10, 5]<br/>class = Dire>, fillcolor="#e581397f"] ;
353 -> 355 ;
356 [label=<gini = 0.4444<br/>samples = 6<br/>value = [4, 2]<br/>class = Dire>, fillcolor="#e581397f"] ;
355 -> 356 ;
357 [label=<radiant_team_delta month &le; 67.4<br/>gini = 0.4444<br/>samples = 9<br/>value = [6, 3]<br/>class = Dire>, fillcolor="#e581397f"] ;
355 -> 357 ;
358 [label=<gini = 0.4444<br/>samples = 6<br/>value = [4, 2]<br/>class = Dire>, fillcolor="#e581397f"] ;
357 -> 358 ;
359 [label=<gini = 0.4444<br/>samples = 3<br/>value = [2, 1]<br/>class = Dire>, fillcolor="#e581397f"] ;
357 -> 359 ;
360 [label=<gini = 0.0<br/>samples = 2<br/>value = [2, 0]<br/>class = Dire>, fillcolor="#e58139ff"] ;
352 -> 360 ;
361 [label=<radiant_team_losses &le; 83.0<br/>gini = 0.4444<br/>samples = 9<br/>value = [3, 6]<br/>class = Radiant>, fillcolor="#399de57f"] ;
351 -> 361 ;
362 [label=<dire_team_elo weekly avg &le; 1319.145<br/>gini = 0.4898<br/>samples = 7<br/>value = [3, 4]<br/>class = Radiant>, fillcolor="#399de540"] ;
361 -> 362 ;
363 [label=<dire_team_glicko2 rating &le; 1540.115<br/>gini = 0.5<br/>samples = 4<br/>value = [2, 2]<br/>class = Dire>, fillcolor="#e5813900"] ;
362 -> 363 ;
364 [label=<gini = 0.5<br/>samples = 2<br/>value = [1, 1]<br/>class = Dire>, fillcolor="#e5813900"] ;
363 -> 364 ;
365 [label=<gini = 0.5<br/>samples = 2<br/>value = [1, 1]<br/>class = Dire>, fillcolor="#e5813900"] ;
363 -> 365 ;
366 [label=<gini = 0.4444<br/>samples = 3<br/>value = [1, 2]<br/>class = Radiant>, fillcolor="#399de57f"] ;
362 -> 366 ;
367 [label=<gini = 0.0<br/>samples = 2<br/>value = [0, 2]<br/>class = Radiant>, fillcolor="#399de5ff"] ;
361 -> 367 ;
368 [label=<dire_team_glicko2 phi &le; 43.515<br/>gini = 0.4981<br/>samples = 369<br/>value = [173, 196]<br/>class = Radiant>, fillcolor="#399de51e"] ;
344 -> 368 ;
369 [label=<radiant_team_glicko rating &le; 1680.8149<br/>gini = 0.4998<br/>samples = 286<br/>value = [140, 146]<br/>class = Radiant>, fillcolor="#399de50a"] ;
368 -> 369 ;
370 [label=<radiant_team_glicko mu &le; 1845.4851<br/>gini = 0.4998<br/>samples = 249<br/>value = [127, 122]<br/>class = Dire>, fillcolor="#e581390a"] ;
369 -> 370 ;
371 [label=<dire_team_glicko rating &le; 1738.03<br/>gini = 0.4982<br/>samples = 151<br/>value = [71, 80]<br/>class = Radiant>, fillcolor="#399de51d"] ;
370 -> 371 ;
372 [label=<dire_team_glicko rating &le; 1663.705<br/>gini = 0.4961<br/>samples = 147<br/>value = [67, 80]<br/>class = Radiant>, fillcolor="#399de529"] ;
371 -> 372 ;
373 [label=<radiant_team_elo rating &le; 1243.76<br/>gini = 0.4904<br/>samples = 123<br/>value = [53, 70]<br/>class = Radiant>, fillcolor="#399de53e"] ;
372 -> 373 ;
374 [label=<dire_team_delta month &le; -51.05<br/>gini = 0.4678<br/>samples = 67<br/>value = [25, 42]<br/>class = Radiant>, fillcolor="#399de567"] ;
373 -> 374 ;
375 [label=<radiant_team_glicko2 phi &le; 51.065<br/>gini = 0.375<br/>samples = 4<br/>value = [1, 3]<br/>class = Radiant>, fillcolor="#399de5aa"] ;
374 -> 375 ;
376 [label=<gini = 0.0<br/>samples = 1<br/>value = [0, 1]<br/>class = Radiant>, fillcolor="#399de5ff"] ;
375 -> 376 ;
377 [label=<gini = 0.4444<br/>samples = 3<br/>value = [1, 2]<br/>class = Radiant>, fillcolor="#399de57f"] ;
375 -> 377 ;
378 [label=<radiant_team_glicko2 mu &le; 1720.595<br/>gini = 0.4717<br/>samples = 63<br/>value = [24, 39]<br/>class = Radiant>, fillcolor="#399de562"] ;
374 -> 378 ;
379 [label=<radiant_team_glicko rating &le; 1545.38<br/>gini = 0.4781<br/>samples = 43<br/>value = [17, 26]<br/>class = Radiant>, fillcolor="#399de558"] ;
378 -> 379 ;
380 [label=<gini = 0.4745<br/>samples = 31<br/>value = [12, 19]<br/>class = Radiant>, fillcolor="#399de55e"] ;
379 -> 380 ;
381 [label=<gini = 0.4861<br/>samples = 12<br/>value = [5, 7]<br/>class = Radiant>, fillcolor="#399de549"] ;
379 -> 381 ;
382 [label=<gini = 0.455<br/>samples = 20<br/>value = [7, 13]<br/>class = Radiant>, fillcolor="#399de576"] ;
378 -> 382 ;
383 [label=<dire_team_glicko2 rating &le; 897.905<br/>gini = 0.5<br/>samples = 56<br/>value = [28, 28]<br/>class = Dire>, fillcolor="#e5813900"] ;
373 -> 383 ;
384 [label=<gini = 0.5<br/>samples = 54<br/>value = [27, 27]<br/>class = Dire>, fillcolor="#e5813900"] ;
383 -> 384 ;
385 [label=<gini = 0.5<br/>samples = 2<br/>value = [1, 1]<br/>class = Dire>, fillcolor="#e5813900"] ;
383 -> 385 ;
386 [label=<radiant_team_delta week &le; -121.25<br/>gini = 0.4861<br/>samples = 24<br/>value = [14, 10]<br/>class = Dire>, fillcolor="#e5813949"] ;
372 -> 386 ;
387 [label=<gini = 0.0<br/>samples = 3<br/>value = [0, 3]<br/>class = Radiant>, fillcolor="#399de5ff"] ;
386 -> 387 ;
388 [label=<radiant_team_glicko2 phi &le; 51.065<br/>gini = 0.4444<br/>samples = 21<br/>value = [14, 7]<br/>class = Dire>, fillcolor="#e581397f"] ;
386 -> 388 ;
389 [label=<dire_team_losses &le; 165.0<br/>gini = 0.4844<br/>samples = 17<br/>value = [10, 7]<br/>class = Dire>, fillcolor="#e581394d"] ;
388 -> 389 ;
390 [label=<gini = 0.4898<br/>samples = 7<br/>value = [3, 4]<br/>class = Radiant>, fillcolor="#399de540"] ;
389 -> 390 ;
391 [label=<radiant_team_elo rating &le; 1140.1699<br/>gini = 0.42<br/>samples = 10<br/>value = [7, 3]<br/>class = Dire>, fillcolor="#e5813992"] ;
389 -> 391 ;
392 [label=<gini = 0.4082<br/>samples = 7<br/>value = [5, 2]<br/>class = Dire>, fillcolor="#e5813999"] ;
391 -> 392 ;
393 [label=<gini = 0.4444<br/>samples = 3<br/>value = [2, 1]<br/>class = Dire>, fillcolor="#e581397f"] ;
391 -> 393 ;
394 [label=<gini = 0.0<br/>samples = 4<br/>value = [4, 0]<br/>class = Dire>, fillcolor="#e58139ff"] ;
388 -> 394 ;
395 [label=<gini = 0.0<br/>samples = 4<br/>value = [4, 0]<br/>class = Dire>, fillcolor="#e58139ff"] ;
371 -> 395 ;
396 [label=<dire_team_elo rating &le; 1240.98<br/>gini = 0.4898<br/>samples = 98<br/>value = [56, 42]<br/>class = Dire>, fillcolor="#e5813940"] ;
370 -> 396 ;
397 [label=<radiant_team_elo rating &le; 1179.47<br/>gini = 0.4713<br/>samples = 71<br/>value = [44, 27]<br/>class = Dire>, fillcolor="#e5813963"] ;
396 -> 397 ;
398 [label=<gini = 0.4444<br/>samples = 3<br/>value = [1, 2]<br/>class = Radiant>, fillcolor="#399de57f"] ;
397 -> 398 ;
399 [label=<radiant_team_elo weekly avg &le; 1220.7151<br/>gini = 0.465<br/>samples = 68<br/>value = [43, 25]<br/>class = Dire>, fillcolor="#e581396b"] ;
397 -> 399 ;
400 [label=<gini = 0.4444<br/>samples = 21<br/>value = [14, 7]<br/>class = Dire>, fillcolor="#e581397f"] ;
399 -> 400 ;
401 [label=<radiant_team_glicko mu &le; 1995.1801<br/>gini = 0.4726<br/>samples = 47<br/>value = [29, 18]<br/>class = Dire>, fillcolor="#e5813961"] ;
399 -> 401 ;
402 [label=<dire_team_elo weekly avg &le; 612.555<br/>gini = 0.48<br/>samples = 20<br/>value = [12, 8]<br/>class = Dire>, fillcolor="#e5813955"] ;
401 -> 402 ;
403 [label=<gini = 0.4753<br/>samples = 18<br/>value = [11, 7]<br/>class = Dire>, fillcolor="#e581395d"] ;
402 -> 403 ;
404 [label=<gini = 0.5<br/>samples = 2<br/>value = [1, 1]<br/>class = Dire>, fillcolor="#e5813900"] ;
402 -> 404 ;
405 [label=<dire_team_glicko sigma &le; 65.285<br/>gini = 0.4664<br/>samples = 27<br/>value = [17, 10]<br/>class = Dire>, fillcolor="#e5813969"] ;
401 -> 405 ;
406 [label=<gini = 0.4717<br/>samples = 21<br/>value = [13, 8]<br/>class = Dire>, fillcolor="#e5813962"] ;
405 -> 406 ;
407 [label=<gini = 0.4444<br/>samples = 6<br/>value = [4, 2]<br/>class = Dire>, fillcolor="#e581397f"] ;
405 -> 407 ;
408 [label=<radiant_team_elo rating &le; 1236.485<br/>gini = 0.4938<br/>samples = 27<br/>value = [12, 15]<br/>class = Radiant>, fillcolor="#399de533"] ;
396 -> 408 ;
409 [label=<gini = 0.4898<br/>samples = 7<br/>value = [4, 3]<br/>class = Dire>, fillcolor="#e5813940"] ;
408 -> 409 ;
410 [label=<dire_team_elo avg active &le; 1233.8301<br/>gini = 0.48<br/>samples = 20<br/>value = [8, 12]<br/>class = Radiant>, fillcolor="#399de555"] ;
408 -> 410 ;
411 [label=<gini = 0.0<br/>samples = 1<br/>value = [0, 1]<br/>class = Radiant>, fillcolor="#399de5ff"] ;
410 -> 411 ;
412 [label=<dire_team_elo avg active &le; 1263.98<br/>gini = 0.4875<br/>samples = 19<br/>value = [8, 11]<br/>class = Radiant>, fillcolor="#399de546"] ;
410 -> 412 ;
413 [label=<radiant_team_glicko2 phi &le; 45.53<br/>gini = 0.4734<br/>samples = 13<br/>value = [5, 8]<br/>class = Radiant>, fillcolor="#399de560"] ;
412 -> 413 ;
414 [label=<dire_team_elo weekly avg &le; 1263.75<br/>gini = 0.4628<br/>samples = 11<br/>value = [4, 7]<br/>class = Radiant>, fillcolor="#399de56d"] ;
413 -> 414 ;
415 [label=<gini = 0.4444<br/>samples = 3<br/>value = [1, 2]<br/>class = Radiant>, fillcolor="#399de57f"] ;
414 -> 415 ;
416 [label=<gini = 0.4688<br/>samples = 8<br/>value = [3, 5]<br/>class = Radiant>, fillcolor="#399de566"] ;
414 -> 416 ;
417 [label=<gini = 0.5<br/>samples = 2<br/>value = [1, 1]<br/>class = Dire>, fillcolor="#e5813900"] ;
413 -> 417 ;
418 [label=<gini = 0.5<br/>samples = 6<br/>value = [3, 3]<br/>class = Dire>, fillcolor="#e5813900"] ;
412 -> 418 ;
419 [label=<dire_team_glicko2 phi &le; 39.97<br/>gini = 0.4558<br/>samples = 37<br/>value = [13, 24]<br/>class = Radiant>, fillcolor="#399de575"] ;
369 -> 419 ;
420 [label=<dire_team_losses &le; 237.5<br/>gini = 0.2975<br/>samples = 22<br/>value = [4, 18]<br/>class = Radiant>, fillcolor="#399de5c6"] ;
419 -> 420 ;
421 [label=<radiant_team_glicko2 mu &le; 1780.4951<br/>gini = 0.3324<br/>samples = 19<br/>value = [4, 15]<br/>class = Radiant>, fillcolor="#399de5bb"] ;
420 -> 421 ;
422 [label=<gini = 0.2778<br/>samples = 6<br/>value = [1, 5]<br/>class = Radiant>, fillcolor="#399de5cc"] ;
421 -> 422 ;
423 [label=<gini = 0.355<br/>samples = 13<br/>value = [3, 10]<br/>class = Radiant>, fillcolor="#399de5b3"] ;
421 -> 423 ;
424 [label=<gini = 0.0<br/>samples = 3<br/>value = [0, 3]<br/>class = Radiant>, fillcolor="#399de5ff"] ;
420 -> 424 ;
425 [label=<dire_team_glicko2 mu &le; 1873.115<br/>gini = 0.48<br/>samples = 15<br/>value = [9, 6]<br/>class = Dire>, fillcolor="#e5813955"] ;
419 -> 425 ;
426 [label=<radiant_team_glicko2 mu &le; 1780.4951<br/>gini = 0.5<br/>samples = 8<br/>value = [4, 4]<br/>class = Dire>, fillcolor="#e5813900"] ;
425 -> 426 ;
427 [label=<dire_team_elo monthly avg &le; 1262.8049<br/>gini = 0.48<br/>samples = 5<br/>value = [2, 3]<br/>class = Radiant>, fillcolor="#399de555"] ;
426 -> 427 ;
428 [label=<gini = 0.5<br/>samples = 4<br/>value = [2, 2]<br/>class = Dire>, fillcolor="#e5813900"] ;
427 -> 428 ;
429 [label=<gini = 0.0<br/>samples = 1<br/>value = [0, 1]<br/>class = Radiant>, fillcolor="#399de5ff"] ;
427 -> 429 ;
430 [label=<gini = 0.4444<br/>samples = 3<br/>value = [2, 1]<br/>class = Dire>, fillcolor="#e581397f"] ;
426 -> 430 ;
431 [label=<radiant_team_delta week &le; -22.15<br/>gini = 0.4082<br/>samples = 7<br/>value = [5, 2]<br/>class = Dire>, fillcolor="#e5813999"] ;
425 -> 431 ;
432 [label=<gini = 0.0<br/>samples = 3<br/>value = [3, 0]<br/>class = Dire>, fillcolor="#e58139ff"] ;
431 -> 432 ;
433 [label=<gini = 0.5<br/>samples = 4<br/>value = [2, 2]<br/>class = Dire>, fillcolor="#e5813900"] ;
431 -> 433 ;
434 [label=<radiant_team_elo rating &le; 1226.5<br/>gini = 0.479<br/>samples = 83<br/>value = [33, 50]<br/>class = Radiant>, fillcolor="#399de557"] ;
368 -> 434 ;
435 [label=<dire_team_glicko2 phi &le; 49.86<br/>gini = 0.2907<br/>samples = 17<br/>value = [3, 14]<br/>class = Radiant>, fillcolor="#399de5c8"] ;
434 -> 435 ;
436 [label=<gini = 0.0<br/>samples = 9<br/>value = [0, 9]<br/>class = Radiant>, fillcolor="#399de5ff"] ;
435 -> 436 ;
437 [label=<dire_team_delta month &le; -20.85<br/>gini = 0.4688<br/>samples = 8<br/>value = [3, 5]<br/>class = Radiant>, fillcolor="#399de566"] ;
435 -> 437 ;
438 [label=<gini = 0.0<br/>samples = 2<br/>value = [2, 0]<br/>class = Dire>, fillcolor="#e58139ff"] ;
437 -> 438 ;
439 [label=<dire_team_elo rating &le; 897.0<br/>gini = 0.2778<br/>samples = 6<br/>value = [1, 5]<br/>class = Radiant>, fillcolor="#399de5cc"] ;
437 -> 439 ;
440 [label=<gini = 0.4444<br/>samples = 3<br/>value = [1, 2]<br/>class = Radiant>, fillcolor="#399de57f"] ;
439 -> 440 ;
441 [label=<gini = 0.0<br/>samples = 3<br/>value = [0, 3]<br/>class = Radiant>, fillcolor="#399de5ff"] ;
439 -> 441 ;
442 [label=<dire_team_delta week &le; 0.05<br/>gini = 0.4959<br/>samples = 66<br/>value = [30, 36]<br/>class = Radiant>, fillcolor="#399de52a"] ;
434 -> 442 ;
443 [label=<radiant_team_glicko mu &le; 1907.8<br/>gini = 0.4826<br/>samples = 59<br/>value = [24, 35]<br/>class = Radiant>, fillcolor="#399de550"] ;
442 -> 443 ;
444 [label=<dire_team_wins &le; 46.5<br/>gini = 0.5<br/>samples = 40<br/>value = [20, 20]<br/>class = Dire>, fillcolor="#e5813900"] ;
443 -> 444 ;
445 [label=<gini = 0.0<br/>samples = 2<br/>value = [2, 0]<br/>class = Dire>, fillcolor="#e58139ff"] ;
444 -> 445 ;
446 [label=<dire_team_elo avg active &le; 1201.38<br/>gini = 0.4986<br/>samples = 38<br/>value = [18, 20]<br/>class = Radiant>, fillcolor="#399de519"] ;
444 -> 446 ;
447 [label=<radiant_team_elo avg active &le; 1296.97<br/>gini = 0.4444<br/>samples = 15<br/>value = [5, 10]<br/>class = Radiant>, fillcolor="#399de57f"] ;
446 -> 447 ;
448 [label=<dire_team_glicko mu &le; 1858.21<br/>gini = 0.5<br/>samples = 8<br/>value = [4, 4]<br/>class = Dire>, fillcolor="#e5813900"] ;
447 -> 448 ;
449 [label=<radiant_team_glicko2 mu &le; 1757.765<br/>gini = 0.4898<br/>samples = 7<br/>value = [3, 4]<br/>class = Radiant>, fillcolor="#399de540"] ;
448 -> 449 ;
450 [label=<dire_team_delta week &le; -0.5<br/>gini = 0.5<br/>samples = 6<br/>value = [3, 3]<br/>class = Dire>, fillcolor="#e5813900"] ;
449 -> 450 ;
451 [label=<gini = 0.5<br/>samples = 2<br/>value = [1, 1]<br/>class = Dire>, fillcolor="#e5813900"] ;
450 -> 451 ;
452 [label=<gini = 0.5<br/>samples = 4<br/>value = [2, 2]<br/>class = Dire>, fillcolor="#e5813900"] ;
450 -> 452 ;
453 [label=<gini = 0.0<br/>samples = 1<br/>value = [0, 1]<br/>class = Radiant>, fillcolor="#399de5ff"] ;
449 -> 453 ;
454 [label=<gini = 0.0<br/>samples = 1<br/>value = [1, 0]<br/>class = Dire>, fillcolor="#e58139ff"] ;
448 -> 454 ;
455 [label=<gini = 0.2449<br/>samples = 7<br/>value = [1, 6]<br/>class = Radiant>, fillcolor="#399de5d4"] ;
447 -> 455 ;
456 [label=<radiant_team_delta month &le; 20.9<br/>gini = 0.4915<br/>samples = 23<br/>value = [13, 10]<br/>class = Dire>, fillcolor="#e581393b"] ;
446 -> 456 ;
457 [label=<dire_team_glicko2 mu &le; 1943.965<br/>gini = 0.48<br/>samples = 20<br/>value = [12, 8]<br/>class = Dire>, fillcolor="#e5813955"] ;
456 -> 457 ;
458 [label=<dire_team_wins &le; 362.0<br/>gini = 0.4444<br/>samples = 9<br/>value = [6, 3]<br/>class = Dire>, fillcolor="#e581397f"] ;
457 -> 458 ;
459 [label=<gini = 0.4444<br/>samples = 3<br/>value = [2, 1]<br/>class = Dire>, fillcolor="#e581397f"] ;
458 -> 459 ;
460 [label=<gini = 0.4444<br/>samples = 6<br/>value = [4, 2]<br/>class = Dire>, fillcolor="#e581397f"] ;
458 -> 460 ;
461 [label=<gini = 0.4959<br/>samples = 11<br/>value = [6, 5]<br/>class = Dire>, fillcolor="#e581392a"] ;
457 -> 461 ;
462 [label=<gini = 0.4444<br/>samples = 3<br/>value = [1, 2]<br/>class = Radiant>, fillcolor="#399de57f"] ;
456 -> 462 ;
463 [label=<dire_team_elo rating &le; 1050.115<br/>gini = 0.3324<br/>samples = 19<br/>value = [4, 15]<br/>class = Radiant>, fillcolor="#399de5bb"] ;
443 -> 463 ;
464 [label=<gini = 0.0<br/>samples = 1<br/>value = [1, 0]<br/>class = Dire>, fillcolor="#e58139ff"] ;
463 -> 464 ;
465 [label=<dire_team_delta month &le; -21.75<br/>gini = 0.2778<br/>samples = 18<br/>value = [3, 15]<br/>class = Radiant>, fillcolor="#399de5cc"] ;
463 -> 465 ;
466 [label=<gini = 0.0<br/>samples = 9<br/>value = [0, 9]<br/>class = Radiant>, fillcolor="#399de5ff"] ;
465 -> 466 ;
467 [label=<dire_team_delta month &le; 10.2<br/>gini = 0.4444<br/>samples = 9<br/>value = [3, 6]<br/>class = Radiant>, fillcolor="#399de57f"] ;
465 -> 467 ;
468 [label=<radiant_team_elo monthly avg &le; 1301.8301<br/>gini = 0.4444<br/>samples = 3<br/>value = [2, 1]<br/>class = Dire>, fillcolor="#e581397f"] ;
467 -> 468 ;
469 [label=<gini = 0.5<br/>samples = 2<br/>value = [1, 1]<br/>class = Dire>, fillcolor="#e5813900"] ;
468 -> 469 ;
470 [label=<gini = 0.0<br/>samples = 1<br/>value = [1, 0]<br/>class = Dire>, fillcolor="#e58139ff"] ;
468 -> 470 ;
471 [label=<radiant_team_glicko sigma &le; 144.205<br/>gini = 0.2778<br/>samples = 6<br/>value = [1, 5]<br/>class = Radiant>, fillcolor="#399de5cc"] ;
467 -> 471 ;
472 [label=<gini = 0.0<br/>samples = 3<br/>value = [0, 3]<br/>class = Radiant>, fillcolor="#399de5ff"] ;
471 -> 472 ;
473 [label=<gini = 0.4444<br/>samples = 3<br/>value = [1, 2]<br/>class = Radiant>, fillcolor="#399de57f"] ;
471 -> 473 ;
474 [label=<dire_team_glicko2 rating &le; 1518.54<br/>gini = 0.2449<br/>samples = 7<br/>value = [6, 1]<br/>class = Dire>, fillcolor="#e58139d4"] ;
442 -> 474 ;
475 [label=<radiant_team_elo weekly avg &le; 1312.625<br/>gini = 0.4444<br/>samples = 3<br/>value = [2, 1]<br/>class = Dire>, fillcolor="#e581397f"] ;
474 -> 475 ;
476 [label=<gini = 0.5<br/>samples = 2<br/>value = [1, 1]<br/>class = Dire>, fillcolor="#e5813900"] ;
475 -> 476 ;
477 [label=<gini = 0.0<br/>samples = 1<br/>value = [1, 0]<br/>class = Dire>, fillcolor="#e58139ff"] ;
475 -> 477 ;
478 [label=<gini = 0.0<br/>samples = 4<br/>value = [4, 0]<br/>class = Dire>, fillcolor="#e58139ff"] ;
474 -> 478 ;
479 [label=<radiant_team_delta week &le; -5.75<br/>gini = 0.4831<br/>samples = 1159<br/>value = [686, 473]<br/>class = Dire>, fillcolor="#e581394f"] ;
257 -> 479 ;
480 [label=<dire_team_glicko mu &le; 1918.55<br/>gini = 0.4526<br/>samples = 289<br/>value = [189, 100]<br/>class = Dire>, fillcolor="#e5813978"] ;
479 -> 480 ;
481 [label=<dire_team_losses &le; 37.0<br/>gini = 0.4215<br/>samples = 212<br/>value = [148, 64]<br/>class = Dire>, fillcolor="#e5813991"] ;
480 -> 481 ;
482 [label=<dire_team_glicko sigma &le; 104.93<br/>gini = 0.4486<br/>samples = 159<br/>value = [105, 54]<br/>class = Dire>, fillcolor="#e581397c"] ;
481 -> 482 ;
483 [label=<radiant_team_glicko sigma &le; 111.175<br/>gini = 0.443<br/>samples = 157<br/>value = [105, 52]<br/>class = Dire>, fillcolor="#e5813981"] ;
482 -> 483 ;
484 [label=<dire_team_elo weekly avg &le; 1123.51<br/>gini = 0.462<br/>samples = 116<br/>value = [74, 42]<br/>class = Dire>, fillcolor="#e581396e"] ;
483 -> 484 ;
485 [label=<dire_team_delta week &le; -20.15<br/>gini = 0.4574<br/>samples = 113<br/>value = [73, 40]<br/>class = Dire>, fillcolor="#e5813973"] ;
484 -> 485 ;
486 [label=<gini = 0.0<br/>samples = 1<br/>value = [1, 0]<br/>class = Dire>, fillcolor="#e58139ff"] ;
485 -> 486 ;
487 [label=<radiant_team_wins &le; 212.5<br/>gini = 0.4592<br/>samples = 112<br/>value = [72, 40]<br/>class = Dire>, fillcolor="#e5813971"] ;
485 -> 487 ;
488 [label=<gini = 0.4654<br/>samples = 57<br/>value = [36, 21]<br/>class = Dire>, fillcolor="#e581396a"] ;
487 -> 488 ;
489 [label=<gini = 0.4522<br/>samples = 55<br/>value = [36, 19]<br/>class = Dire>, fillcolor="#e5813978"] ;
487 -> 489 ;
490 [label=<gini = 0.4444<br/>samples = 3<br/>value = [1, 2]<br/>class = Radiant>, fillcolor="#399de57f"] ;
484 -> 490 ;
491 [label=<gini = 0.3688<br/>samples = 41<br/>value = [31, 10]<br/>class = Dire>, fillcolor="#e58139ad"] ;
483 -> 491 ;
492 [label=<gini = 0.0<br/>samples = 2<br/>value = [0, 2]<br/>class = Radiant>, fillcolor="#399de5ff"] ;
482 -> 492 ;
493 [label=<dire_team_losses &le; 55.0<br/>gini = 0.3062<br/>samples = 53<br/>value = [43, 10]<br/>class = Dire>, fillcolor="#e58139c4"] ;
481 -> 493 ;
494 [label=<gini = 0.0<br/>samples = 8<br/>value = [8, 0]<br/>class = Dire>, fillcolor="#e58139ff"] ;
493 -> 494 ;
495 [label=<radiant_team_elo monthly avg &le; 1277.4351<br/>gini = 0.3457<br/>samples = 45<br/>value = [35, 10]<br/>class = Dire>, fillcolor="#e58139b6"] ;
493 -> 495 ;
496 [label=<dire_team_wins &le; 133.5<br/>gini = 0.4444<br/>samples = 15<br/>value = [10, 5]<br/>class = Dire>, fillcolor="#e581397f"] ;
495 -> 496 ;
497 [label=<dire_team_elo monthly avg &le; 485.62<br/>gini = 0.4082<br/>samples = 14<br/>value = [10, 4]<br/>class = Dire>, fillcolor="#e5813999"] ;
496 -> 497 ;
498 [label=<gini = 0.4688<br/>samples = 8<br/>value = [5, 3]<br/>class = Dire>, fillcolor="#e5813966"] ;
497 -> 498 ;
499 [label=<dire_team_glicko sigma &le; 132.025<br/>gini = 0.2778<br/>samples = 6<br/>value = [5, 1]<br/>class = Dire>, fillcolor="#e58139cc"] ;
497 -> 499 ;
500 [label=<gini = 0.32<br/>samples = 5<br/>value = [4, 1]<br/>class = Dire>, fillcolor="#e58139bf"] ;
499 -> 500 ;
501 [label=<gini = 0.0<br/>samples = 1<br/>value = [1, 0]<br/>class = Dire>, fillcolor="#e58139ff"] ;
499 -> 501 ;
502 [label=<gini = 0.0<br/>samples = 1<br/>value = [0, 1]<br/>class = Radiant>, fillcolor="#399de5ff"] ;
496 -> 502 ;
503 [label=<dire_team_glicko mu &le; 1898.3049<br/>gini = 0.2778<br/>samples = 30<br/>value = [25, 5]<br/>class = Dire>, fillcolor="#e58139cc"] ;
495 -> 503 ;
504 [label=<radiant_team_delta month &le; -82.55<br/>gini = 0.2854<br/>samples = 29<br/>value = [24, 5]<br/>class = Dire>, fillcolor="#e58139ca"] ;
503 -> 504 ;
505 [label=<dire_team_glicko2 rating &le; 1770.78<br/>gini = 0.2449<br/>samples = 14<br/>value = [12, 2]<br/>class = Dire>, fillcolor="#e58139d4"] ;
504 -> 505 ;
506 [label=<gini = 0.0<br/>samples = 2<br/>value = [2, 0]<br/>class = Dire>, fillcolor="#e58139ff"] ;
505 -> 506 ;
507 [label=<gini = 0.2778<br/>samples = 12<br/>value = [10, 2]<br/>class = Dire>, fillcolor="#e58139cc"] ;
505 -> 507 ;
508 [label=<dire_team_losses &le; 68.0<br/>gini = 0.32<br/>samples = 15<br/>value = [12, 3]<br/>class = Dire>, fillcolor="#e58139bf"] ;
504 -> 508 ;
509 [label=<gini = 0.375<br/>samples = 4<br/>value = [3, 1]<br/>class = Dire>, fillcolor="#e58139aa"] ;
508 -> 509 ;
510 [label=<dire_team_glicko rating &le; 1311.4551<br/>gini = 0.2975<br/>samples = 11<br/>value = [9, 2]<br/>class = Dire>, fillcolor="#e58139c6"] ;
508 -> 510 ;
511 [label=<gini = 0.2778<br/>samples = 6<br/>value = [5, 1]<br/>class = Dire>, fillcolor="#e58139cc"] ;
510 -> 511 ;
512 [label=<gini = 0.32<br/>samples = 5<br/>value = [4, 1]<br/>class = Dire>, fillcolor="#e58139bf"] ;
510 -> 512 ;
513 [label=<gini = 0.0<br/>samples = 1<br/>value = [1, 0]<br/>class = Dire>, fillcolor="#e58139ff"] ;
503 -> 513 ;
514 [label=<dire_team_elo rating &le; 1281.74<br/>gini = 0.4979<br/>samples = 77<br/>value = [41, 36]<br/>class = Dire>, fillcolor="#e581391f"] ;
480 -> 514 ;
515 [label=<radiant_team_elo rating &le; 1336.9399<br/>gini = 0.48<br/>samples = 35<br/>value = [21, 14]<br/>class = Dire>, fillcolor="#e5813955"] ;
514 -> 515 ;
516 [label=<dire_team_delta week &le; -4.0<br/>gini = 0.4688<br/>samples = 16<br/>value = [10, 6]<br/>class = Dire>, fillcolor="#e5813966"] ;
515 -> 516 ;
517 [label=<dire_team_losses &le; 339.5<br/>gini = 0.4898<br/>samples = 14<br/>value = [8, 6]<br/>class = Dire>, fillcolor="#e5813940"] ;
516 -> 517 ;
518 [label=<gini = 0.4688<br/>samples = 8<br/>value = [5, 3]<br/>class = Dire>, fillcolor="#e5813966"] ;
517 -> 518 ;
519 [label=<radiant_team_glicko2 phi &le; 43.445<br/>gini = 0.5<br/>samples = 6<br/>value = [3, 3]<br/>class = Dire>, fillcolor="#e5813900"] ;
517 -> 519 ;
520 [label=<gini = 0.5<br/>samples = 2<br/>value = [1, 1]<br/>class = Dire>, fillcolor="#e5813900"] ;
519 -> 520 ;
521 [label=<gini = 0.5<br/>samples = 4<br/>value = [2, 2]<br/>class = Dire>, fillcolor="#e5813900"] ;
519 -> 521 ;
522 [label=<gini = 0.0<br/>samples = 2<br/>value = [2, 0]<br/>class = Dire>, fillcolor="#e58139ff"] ;
516 -> 522 ;
523 [label=<dire_team_glicko sigma &le; 114.85<br/>gini = 0.4875<br/>samples = 19<br/>value = [11, 8]<br/>class = Dire>, fillcolor="#e5813946"] ;
515 -> 523 ;
524 [label=<gini = 0.4444<br/>samples = 9<br/>value = [6, 3]<br/>class = Dire>, fillcolor="#e581397f"] ;
523 -> 524 ;
525 [label=<gini = 0.5<br/>samples = 10<br/>value = [5, 5]<br/>class = Dire>, fillcolor="#e5813900"] ;
523 -> 525 ;
526 [label=<dire_team_elo rating &le; 1332.585<br/>gini = 0.4989<br/>samples = 42<br/>value = [20, 22]<br/>class = Radiant>, fillcolor="#399de517"] ;
514 -> 526 ;
527 [label=<radiant_team_elo avg active &le; 1253.47<br/>gini = 0.5<br/>samples = 32<br/>value = [16, 16]<br/>class = Dire>, fillcolor="#e5813900"] ;
526 -> 527 ;
528 [label=<gini = 0.4444<br/>samples = 3<br/>value = [2, 1]<br/>class = Dire>, fillcolor="#e581397f"] ;
527 -> 528 ;
529 [label=<dire_team_losses &le; 379.0<br/>gini = 0.4994<br/>samples = 29<br/>value = [14, 15]<br/>class = Radiant>, fillcolor="#399de511"] ;
527 -> 529 ;
530 [label=<gini = 0.5<br/>samples = 18<br/>value = [9, 9]<br/>class = Dire>, fillcolor="#e5813900"] ;
529 -> 530 ;
531 [label=<radiant_team_glicko rating &le; 1619.775<br/>gini = 0.4959<br/>samples = 11<br/>value = [5, 6]<br/>class = Radiant>, fillcolor="#399de52a"] ;
529 -> 531 ;
532 [label=<gini = 0.4938<br/>samples = 9<br/>value = [4, 5]<br/>class = Radiant>, fillcolor="#399de533"] ;
531 -> 532 ;
533 [label=<gini = 0.5<br/>samples = 2<br/>value = [1, 1]<br/>class = Dire>, fillcolor="#e5813900"] ;
531 -> 533 ;
534 [label=<radiant_team_elo monthly avg &le; 1277.4351<br/>gini = 0.48<br/>samples = 10<br/>value = [4, 6]<br/>class = Radiant>, fillcolor="#399de555"] ;
526 -> 534 ;
535 [label=<gini = 0.0<br/>samples = 2<br/>value = [0, 2]<br/>class = Radiant>, fillcolor="#399de5ff"] ;
534 -> 535 ;
536 [label=<dire_team_delta week &le; -6.05<br/>gini = 0.5<br/>samples = 8<br/>value = [4, 4]<br/>class = Dire>, fillcolor="#e5813900"] ;
534 -> 536 ;
537 [label=<radiant_team_glicko rating &le; 1619.775<br/>gini = 0.4898<br/>samples = 7<br/>value = [3, 4]<br/>class = Radiant>, fillcolor="#399de540"] ;
536 -> 537 ;
538 [label=<gini = 0.5<br/>samples = 2<br/>value = [1, 1]<br/>class = Dire>, fillcolor="#e5813900"] ;
537 -> 538 ;
539 [label=<gini = 0.48<br/>samples = 5<br/>value = [2, 3]<br/>class = Radiant>, fillcolor="#399de555"] ;
537 -> 539 ;
540 [label=<gini = 0.0<br/>samples = 1<br/>value = [1, 0]<br/>class = Dire>, fillcolor="#e58139ff"] ;
536 -> 540 ;
541 [label=<radiant_team_delta week &le; 35.35<br/>gini = 0.4898<br/>samples = 870<br/>value = [497, 373]<br/>class = Dire>, fillcolor="#e5813940"] ;
479 -> 541 ;
542 [label=<dire_team_wins &le; 603.0<br/>gini = 0.4958<br/>samples = 557<br/>value = [304, 253]<br/>class = Dire>, fillcolor="#e581392b"] ;
541 -> 542 ;
543 [label=<dire_team_delta month &le; -120.6<br/>gini = 0.4934<br/>samples = 515<br/>value = [287, 228]<br/>class = Dire>, fillcolor="#e5813934"] ;
542 -> 543 ;
544 [label=<gini = 0.0<br/>samples = 4<br/>value = [4, 0]<br/>class = Dire>, fillcolor="#e58139ff"] ;
543 -> 544 ;
545 [label=<dire_team_glicko sigma &le; 212.94<br/>gini = 0.4942<br/>samples = 511<br/>value = [283, 228]<br/>class = Dire>, fillcolor="#e5813932"] ;
543 -> 545 ;
546 [label=<dire_team_glicko2 phi &le; 53.065<br/>gini = 0.4946<br/>samples = 509<br/>value = [281, 228]<br/>class = Dire>, fillcolor="#e5813930"] ;
545 -> 546 ;
547 [label=<dire_team_glicko2 phi &le; 44.11<br/>gini = 0.4932<br/>samples = 496<br/>value = [277, 219]<br/>class = Dire>, fillcolor="#e5813935"] ;
546 -> 547 ;
548 [label=<radiant_team_delta month &le; -101.55<br/>gini = 0.4953<br/>samples = 412<br/>value = [226, 186]<br/>class = Dire>, fillcolor="#e581392d"] ;
547 -> 548 ;
549 [label=<dire_team_elo weekly avg &le; 1320.36<br/>gini = 0.4915<br/>samples = 23<br/>value = [10, 13]<br/>class = Radiant>, fillcolor="#399de53b"] ;
548 -> 549 ;
550 [label=<dire_team_elo avg active &le; 1291.665<br/>gini = 0.4922<br/>samples = 16<br/>value = [9, 7]<br/>class = Dire>, fillcolor="#e5813939"] ;
549 -> 550 ;
551 [label=<dire_team_glicko mu &le; 939.52<br/>gini = 0.4978<br/>samples = 15<br/>value = [8, 7]<br/>class = Dire>, fillcolor="#e5813920"] ;
550 -> 551 ;
552 [label=<gini = 0.4938<br/>samples = 9<br/>value = [5, 4]<br/>class = Dire>, fillcolor="#e5813933"] ;
551 -> 552 ;
553 [label=<gini = 0.5<br/>samples = 6<br/>value = [3, 3]<br/>class = Dire>, fillcolor="#e5813900"] ;
551 -> 553 ;
554 [label=<gini = 0.0<br/>samples = 1<br/>value = [1, 0]<br/>class = Dire>, fillcolor="#e58139ff"] ;
550 -> 554 ;
555 [label=<dire_team_glicko rating &le; 1689.21<br/>gini = 0.2449<br/>samples = 7<br/>value = [1, 6]<br/>class = Radiant>, fillcolor="#399de5d4"] ;
549 -> 555 ;
556 [label=<gini = 0.0<br/>samples = 4<br/>value = [0, 4]<br/>class = Radiant>, fillcolor="#399de5ff"] ;
555 -> 556 ;
557 [label=<gini = 0.4444<br/>samples = 3<br/>value = [1, 2]<br/>class = Radiant>, fillcolor="#399de57f"] ;
555 -> 557 ;
558 [label=<radiant_team_elo weekly avg &le; 1315.9651<br/>gini = 0.4939<br/>samples = 389<br/>value = [216, 173]<br/>class = Dire>, fillcolor="#e5813933"] ;
548 -> 558 ;
559 [label=<dire_team_delta month &le; 69.75<br/>gini = 0.4951<br/>samples = 353<br/>value = [194, 159]<br/>class = Dire>, fillcolor="#e581392e"] ;
558 -> 559 ;
560 [label=<dire_team_glicko rating &le; 1551.5801<br/>gini = 0.4957<br/>samples = 344<br/>value = [188, 156]<br/>class = Dire>, fillcolor="#e581392b"] ;
559 -> 560 ;
561 [label=<radiant_team_wins &le; 701.5<br/>gini = 0.4944<br/>samples = 293<br/>value = [162, 131]<br/>class = Dire>, fillcolor="#e5813931"] ;
560 -> 561 ;
562 [label=<dire_team_wins &le; 94.5<br/>gini = 0.496<br/>samples = 246<br/>value = [134, 112]<br/>class = Dire>, fillcolor="#e581392a"] ;
561 -> 562 ;
563 [label=<radiant_team_losses &le; 190.0<br/>gini = 0.4973<br/>samples = 216<br/>value = [116, 100]<br/>class = Dire>, fillcolor="#e5813923"] ;
562 -> 563 ;
564 [label=<gini = 0.4998<br/>samples = 51<br/>value = [25, 26]<br/>class = Radiant>, fillcolor="#399de50a"] ;
563 -> 564 ;
565 [label=<radiant_team_losses &le; 241.0<br/>gini = 0.4947<br/>samples = 165<br/>value = [91, 74]<br/>class = Dire>, fillcolor="#e5813930"] ;
563 -> 565 ;
566 [label=<gini = 0.4844<br/>samples = 51<br/>value = [30, 21]<br/>class = Dire>, fillcolor="#e581394d"] ;
565 -> 566 ;
567 [label=<radiant_team_glicko2 rating &le; 1582.0601<br/>gini = 0.4975<br/>samples = 114<br/>value = [61, 53]<br/>class = Dire>, fillcolor="#e5813921"] ;
565 -> 567 ;
568 [label=<gini = 0.4985<br/>samples = 36<br/>value = [19, 17]<br/>class = Dire>, fillcolor="#e581391b"] ;
567 -> 568 ;
569 [label=<radiant_team_elo rating &le; 1269.2051<br/>gini = 0.497<br/>samples = 78<br/>value = [42, 36]<br/>class = Dire>, fillcolor="#e5813924"] ;
567 -> 569 ;
570 [label=<gini = 0.4974<br/>samples = 28<br/>value = [15, 13]<br/>class = Dire>, fillcolor="#e5813922"] ;
569 -> 570 ;
571 [label=<gini = 0.4968<br/>samples = 50<br/>value = [27, 23]<br/>class = Dire>, fillcolor="#e5813926"] ;
569 -> 571 ;
572 [label=<radiant_team_elo rating &le; 1167.4<br/>gini = 0.48<br/>samples = 30<br/>value = [18, 12]<br/>class = Dire>, fillcolor="#e5813955"] ;
562 -> 572 ;
573 [label=<gini = 0.32<br/>samples = 10<br/>value = [8, 2]<br/>class = Dire>, fillcolor="#e58139bf"] ;
572 -> 573 ;
574 [label=<radiant_team_glicko sigma &le; 173.53<br/>gini = 0.5<br/>samples = 20<br/>value = [10, 10]<br/>class = Dire>, fillcolor="#e5813900"] ;
572 -> 574 ;
575 [label=<gini = 0.375<br/>samples = 4<br/>value = [1, 3]<br/>class = Radiant>, fillcolor="#399de5aa"] ;
574 -> 575 ;
576 [label=<gini = 0.4922<br/>samples = 16<br/>value = [9, 7]<br/>class = Dire>, fillcolor="#e5813939"] ;
574 -> 576 ;
577 [label=<dire_team_delta week &le; -120.8<br/>gini = 0.4817<br/>samples = 47<br/>value = [28, 19]<br/>class = Dire>, fillcolor="#e5813952"] ;
561 -> 577 ;
578 [label=<gini = 0.5<br/>samples = 2<br/>value = [1, 1]<br/>class = Dire>, fillcolor="#e5813900"] ;
577 -> 578 ;
579 [label=<gini = 0.48<br/>samples = 45<br/>value = [27, 18]<br/>class = Dire>, fillcolor="#e5813955"] ;
577 -> 579 ;
580 [label=<radiant_team_glicko2 rating &le; 1731.875<br/>gini = 0.4998<br/>samples = 51<br/>value = [26, 25]<br/>class = Dire>, fillcolor="#e581390a"] ;
560 -> 580 ;
581 [label=<radiant_team_losses &le; 311.5<br/>gini = 0.4444<br/>samples = 15<br/>value = [10, 5]<br/>class = Dire>, fillcolor="#e581397f"] ;
580 -> 581 ;
582 [label=<gini = 0.32<br/>samples = 5<br/>value = [4, 1]<br/>class = Dire>, fillcolor="#e58139bf"] ;
581 -> 582 ;
583 [label=<dire_team_glicko2 rating &le; 1788.275<br/>gini = 0.48<br/>samples = 10<br/>value = [6, 4]<br/>class = Dire>, fillcolor="#e5813955"] ;
581 -> 583 ;
584 [label=<gini = 0.4444<br/>samples = 9<br/>value = [6, 3]<br/>class = Dire>, fillcolor="#e581397f"] ;
583 -> 584 ;
585 [label=<gini = 0.0<br/>samples = 1<br/>value = [0, 1]<br/>class = Radiant>, fillcolor="#399de5ff"] ;
583 -> 585 ;
586 [label=<radiant_team_delta month &le; -44.85<br/>gini = 0.4938<br/>samples = 36<br/>value = [16, 20]<br/>class = Radiant>, fillcolor="#399de533"] ;
580 -> 586 ;
587 [label=<gini = 0.0<br/>samples = 1<br/>value = [0, 1]<br/>class = Radiant>, fillcolor="#399de5ff"] ;
586 -> 587 ;
588 [label=<dire_team_glicko2 phi &le; 42.125<br/>gini = 0.4963<br/>samples = 35<br/>value = [16, 19]<br/>class = Radiant>, fillcolor="#399de528"] ;
586 -> 588 ;
589 [label=<radiant_team_elo weekly avg &le; 1176.395<br/>gini = 0.4628<br/>samples = 11<br/>value = [4, 7]<br/>class = Radiant>, fillcolor="#399de56d"] ;
588 -> 589 ;
590 [label=<gini = 0.5<br/>samples = 2<br/>value = [1, 1]<br/>class = Dire>, fillcolor="#e5813900"] ;
589 -> 590 ;
591 [label=<gini = 0.4444<br/>samples = 9<br/>value = [3, 6]<br/>class = Radiant>, fillcolor="#399de57f"] ;
589 -> 591 ;
592 [label=<dire_team_wins &le; 497.0<br/>gini = 0.5<br/>samples = 24<br/>value = [12, 12]<br/>class = Dire>, fillcolor="#e5813900"] ;
588 -> 592 ;
593 [label=<radiant_team_elo rating &le; 1182.7949<br/>gini = 0.4938<br/>samples = 9<br/>value = [5, 4]<br/>class = Dire>, fillcolor="#e5813933"] ;
592 -> 593 ;
594 [label=<gini = 0.0<br/>samples = 1<br/>value = [1, 0]<br/>class = Dire>, fillcolor="#e58139ff"] ;
593 -> 594 ;
595 [label=<gini = 0.5<br/>samples = 8<br/>value = [4, 4]<br/>class = Dire>, fillcolor="#e5813900"] ;
593 -> 595 ;
596 [label=<radiant_team_elo rating &le; 1182.7949<br/>gini = 0.4978<br/>samples = 15<br/>value = [7, 8]<br/>class = Radiant>, fillcolor="#399de520"] ;
592 -> 596 ;
597 [label=<gini = 0.48<br/>samples = 10<br/>value = [4, 6]<br/>class = Radiant>, fillcolor="#399de555"] ;
596 -> 597 ;
598 [label=<gini = 0.48<br/>samples = 5<br/>value = [3, 2]<br/>class = Dire>, fillcolor="#e5813955"] ;
596 -> 598 ;
599 [label=<radiant_team_wins &le; 701.5<br/>gini = 0.4444<br/>samples = 9<br/>value = [6, 3]<br/>class = Dire>, fillcolor="#e581397f"] ;
559 -> 599 ;
600 [label=<radiant_team_glicko2 phi &le; 44.675<br/>gini = 0.375<br/>samples = 8<br/>value = [6, 2]<br/>class = Dire>, fillcolor="#e58139aa"] ;
599 -> 600 ;
601 [label=<radiant_team_glicko sigma &le; 118.725<br/>gini = 0.4082<br/>samples = 7<br/>value = [5, 2]<br/>class = Dire>, fillcolor="#e5813999"] ;
600 -> 601 ;
602 [label=<gini = 0.375<br/>samples = 4<br/>value = [3, 1]<br/>class = Dire>, fillcolor="#e58139aa"] ;
601 -> 602 ;
603 [label=<gini = 0.4444<br/>samples = 3<br/>value = [2, 1]<br/>class = Dire>, fillcolor="#e581397f"] ;
601 -> 603 ;
604 [label=<gini = 0.0<br/>samples = 1<br/>value = [1, 0]<br/>class = Dire>, fillcolor="#e58139ff"] ;
600 -> 604 ;
605 [label=<gini = 0.0<br/>samples = 1<br/>value = [0, 1]<br/>class = Radiant>, fillcolor="#399de5ff"] ;
599 -> 605 ;
606 [label=<dire_team_elo rating &le; 1336.9399<br/>gini = 0.4753<br/>samples = 36<br/>value = [22, 14]<br/>class = Dire>, fillcolor="#e581395d"] ;
558 -> 606 ;
607 [label=<dire_team_glicko rating &le; 1735.72<br/>gini = 0.4885<br/>samples = 33<br/>value = [19, 14]<br/>class = Dire>, fillcolor="#e5813943"] ;
606 -> 607 ;
608 [label=<dire_team_wins &le; 383.5<br/>gini = 0.4824<br/>samples = 32<br/>value = [19, 13]<br/>class = Dire>, fillcolor="#e5813951"] ;
607 -> 608 ;
609 [label=<dire_team_elo avg active &le; 613.955<br/>gini = 0.4664<br/>samples = 27<br/>value = [17, 10]<br/>class = Dire>, fillcolor="#e5813969"] ;
608 -> 609 ;
610 [label=<gini = 0.4567<br/>samples = 17<br/>value = [11, 6]<br/>class = Dire>, fillcolor="#e5813974"] ;
609 -> 610 ;
611 [label=<dire_team_glicko sigma &le; 108.99<br/>gini = 0.48<br/>samples = 10<br/>value = [6, 4]<br/>class = Dire>, fillcolor="#e5813955"] ;
609 -> 611 ;
612 [label=<gini = 0.48<br/>samples = 5<br/>value = [3, 2]<br/>class = Dire>, fillcolor="#e5813955"] ;
611 -> 612 ;
613 [label=<gini = 0.48<br/>samples = 5<br/>value = [3, 2]<br/>class = Dire>, fillcolor="#e5813955"] ;
611 -> 613 ;
614 [label=<gini = 0.48<br/>samples = 5<br/>value = [2, 3]<br/>class = Radiant>, fillcolor="#399de555"] ;
608 -> 614 ;
615 [label=<gini = 0.0<br/>samples = 1<br/>value = [0, 1]<br/>class = Radiant>, fillcolor="#399de5ff"] ;
607 -> 615 ;
616 [label=<gini = 0.0<br/>samples = 3<br/>value = [3, 0]<br/>class = Dire>, fillcolor="#e58139ff"] ;
606 -> 616 ;
617 [label=<radiant_team_elo avg active &le; 1360.485<br/>gini = 0.477<br/>samples = 84<br/>value = [51, 33]<br/>class = Dire>, fillcolor="#e581395a"] ;
547 -> 617 ;
618 [label=<radiant_team_glicko rating &le; 1663.705<br/>gini = 0.4581<br/>samples = 76<br/>value = [49, 27]<br/>class = Dire>, fillcolor="#e5813972"] ;
617 -> 618 ;
619 [label=<dire_team_glicko2 mu &le; 1703.3149<br/>gini = 0.382<br/>samples = 35<br/>value = [26, 9]<br/>class = Dire>, fillcolor="#e58139a7"] ;
618 -> 619 ;
620 [label=<radiant_team_glicko sigma &le; 161.345<br/>gini = 0.4444<br/>samples = 3<br/>value = [1, 2]<br/>class = Radiant>, fillcolor="#399de57f"] ;
619 -> 620 ;
621 [label=<gini = 0.5<br/>samples = 2<br/>value = [1, 1]<br/>class = Dire>, fillcolor="#e5813900"] ;
620 -> 621 ;
622 [label=<gini = 0.0<br/>samples = 1<br/>value = [0, 1]<br/>class = Radiant>, fillcolor="#399de5ff"] ;
620 -> 622 ;
623 [label=<dire_team_glicko2 rating &le; 1702.85<br/>gini = 0.3418<br/>samples = 32<br/>value = [25, 7]<br/>class = Dire>, fillcolor="#e58139b8"] ;
619 -> 623 ;
624 [label=<gini = 0.0<br/>samples = 5<br/>value = [5, 0]<br/>class = Dire>, fillcolor="#e58139ff"] ;
623 -> 624 ;
625 [label=<dire_team_elo rating &le; 1298.0<br/>gini = 0.3841<br/>samples = 27<br/>value = [20, 7]<br/>class = Dire>, fillcolor="#e58139a6"] ;
623 -> 625 ;
626 [label=<radiant_team_elo monthly avg &le; 1198.765<br/>gini = 0.3457<br/>samples = 18<br/>value = [14, 4]<br/>class = Dire>, fillcolor="#e58139b6"] ;
625 -> 626 ;
627 [label=<gini = 0.4444<br/>samples = 6<br/>value = [4, 2]<br/>class = Dire>, fillcolor="#e581397f"] ;
626 -> 627 ;
628 [label=<gini = 0.2778<br/>samples = 12<br/>value = [10, 2]<br/>class = Dire>, fillcolor="#e58139cc"] ;
626 -> 628 ;
629 [label=<radiant_team_glicko sigma &le; 173.53<br/>gini = 0.4444<br/>samples = 9<br/>value = [6, 3]<br/>class = Dire>, fillcolor="#e581397f"] ;
625 -> 629 ;
630 [label=<radiant_team_glicko sigma &le; 139.325<br/>gini = 0.2778<br/>samples = 6<br/>value = [5, 1]<br/>class = Dire>, fillcolor="#e58139cc"] ;
629 -> 630 ;
631 [label=<gini = 0.375<br/>samples = 4<br/>value = [3, 1]<br/>class = Dire>, fillcolor="#e58139aa"] ;
630 -> 631 ;
632 [label=<gini = 0.0<br/>samples = 2<br/>value = [2, 0]<br/>class = Dire>, fillcolor="#e58139ff"] ;
630 -> 632 ;
633 [label=<gini = 0.4444<br/>samples = 3<br/>value = [1, 2]<br/>class = Radiant>, fillcolor="#399de57f"] ;
629 -> 633 ;
634 [label=<dire_team_losses &le; 43.5<br/>gini = 0.4926<br/>samples = 41<br/>value = [23, 18]<br/>class = Dire>, fillcolor="#e5813937"] ;
618 -> 634 ;
635 [label=<gini = 0.0<br/>samples = 2<br/>value = [0, 2]<br/>class = Radiant>, fillcolor="#399de5ff"] ;
634 -> 635 ;
636 [label=<dire_team_delta month &le; -46.45<br/>gini = 0.4839<br/>samples = 39<br/>value = [23, 16]<br/>class = Dire>, fillcolor="#e581394e"] ;
634 -> 636 ;
637 [label=<dire_team_wins &le; 138.0<br/>gini = 0.4444<br/>samples = 24<br/>value = [16, 8]<br/>class = Dire>, fillcolor="#e581397f"] ;
636 -> 637 ;
638 [label=<radiant_team_glicko2 mu &le; 1812.255<br/>gini = 0.4444<br/>samples = 15<br/>value = [10, 5]<br/>class = Dire>, fillcolor="#e581397f"] ;
637 -> 638 ;
639 [label=<gini = 0.4444<br/>samples = 6<br/>value = [4, 2]<br/>class = Dire>, fillcolor="#e581397f"] ;
638 -> 639 ;
640 [label=<gini = 0.4444<br/>samples = 9<br/>value = [6, 3]<br/>class = Dire>, fillcolor="#e581397f"] ;
638 -> 640 ;
641 [label=<radiant_team_delta month &le; 40.9<br/>gini = 0.4444<br/>samples = 9<br/>value = [6, 3]<br/>class = Dire>, fillcolor="#e581397f"] ;
637 -> 641 ;
642 [label=<gini = 0.4444<br/>samples = 6<br/>value = [4, 2]<br/>class = Dire>, fillcolor="#e581397f"] ;
641 -> 642 ;
643 [label=<gini = 0.4444<br/>samples = 3<br/>value = [2, 1]<br/>class = Dire>, fillcolor="#e581397f"] ;
641 -> 643 ;
644 [label=<radiant_team_glicko2 phi &le; 41.36<br/>gini = 0.4978<br/>samples = 15<br/>value = [7, 8]<br/>class = Radiant>, fillcolor="#399de520"] ;
636 -> 644 ;
645 [label=<dire_team_glicko rating &le; 1359.4099<br/>gini = 0.4861<br/>samples = 12<br/>value = [7, 5]<br/>class = Dire>, fillcolor="#e5813949"] ;
644 -> 645 ;
646 [label=<gini = 0.48<br/>samples = 10<br/>value = [6, 4]<br/>class = Dire>, fillcolor="#e5813955"] ;
645 -> 646 ;
647 [label=<gini = 0.5<br/>samples = 2<br/>value = [1, 1]<br/>class = Dire>, fillcolor="#e5813900"] ;
645 -> 647 ;
648 [label=<gini = 0.0<br/>samples = 3<br/>value = [0, 3]<br/>class = Radiant>, fillcolor="#399de5ff"] ;
644 -> 648 ;
649 [label=<dire_team_delta month &le; -39.35<br/>gini = 0.375<br/>samples = 8<br/>value = [2, 6]<br/>class = Radiant>, fillcolor="#399de5aa"] ;
617 -> 649 ;
650 [label=<gini = 0.0<br/>samples = 5<br/>value = [0, 5]<br/>class = Radiant>, fillcolor="#399de5ff"] ;
649 -> 650 ;
651 [label=<dire_team_glicko sigma &le; 134.1<br/>gini = 0.4444<br/>samples = 3<br/>value = [2, 1]<br/>class = Dire>, fillcolor="#e581397f"] ;
649 -> 651 ;
652 [label=<gini = 0.0<br/>samples = 1<br/>value = [1, 0]<br/>class = Dire>, fillcolor="#e58139ff"] ;
651 -> 652 ;
653 [label=<gini = 0.5<br/>samples = 2<br/>value = [1, 1]<br/>class = Dire>, fillcolor="#e5813900"] ;
651 -> 653 ;
654 [label=<dire_team_glicko2 phi &le; 53.5<br/>gini = 0.426<br/>samples = 13<br/>value = [4, 9]<br/>class = Radiant>, fillcolor="#399de58e"] ;
546 -> 654 ;
655 [label=<dire_team_elo rating &le; 1022.8051<br/>gini = 0.4628<br/>samples = 11<br/>value = [4, 7]<br/>class = Radiant>, fillcolor="#399de56d"] ;
654 -> 655 ;
656 [label=<radiant_team_glicko2 rating &le; 1764.5601<br/>gini = 0.4444<br/>samples = 6<br/>value = [2, 4]<br/>class = Radiant>, fillcolor="#399de57f"] ;
655 -> 656 ;
657 [label=<gini = 0.5<br/>samples = 4<br/>value = [2, 2]<br/>class = Dire>, fillcolor="#e5813900"] ;
656 -> 657 ;
658 [label=<gini = 0.0<br/>samples = 2<br/>value = [0, 2]<br/>class = Radiant>, fillcolor="#399de5ff"] ;
656 -> 658 ;
659 [label=<radiant_team_delta month &le; -49.1<br/>gini = 0.48<br/>samples = 5<br/>value = [2, 3]<br/>class = Radiant>, fillcolor="#399de555"] ;
655 -> 659 ;
660 [label=<gini = 0.0<br/>samples = 1<br/>value = [1, 0]<br/>class = Dire>, fillcolor="#e58139ff"] ;
659 -> 660 ;
661 [label=<gini = 0.375<br/>samples = 4<br/>value = [1, 3]<br/>class = Radiant>, fillcolor="#399de5aa"] ;
659 -> 661 ;
662 [label=<gini = 0.0<br/>samples = 2<br/>value = [0, 2]<br/>class = Radiant>, fillcolor="#399de5ff"] ;
654 -> 662 ;
663 [label=<gini = 0.0<br/>samples = 2<br/>value = [2, 0]<br/>class = Dire>, fillcolor="#e58139ff"] ;
545 -> 663 ;
664 [label=<radiant_team_glicko rating &le; 1487.655<br/>gini = 0.4819<br/>samples = 42<br/>value = [17, 25]<br/>class = Radiant>, fillcolor="#399de552"] ;
542 -> 664 ;
665 [label=<dire_team_glicko sigma &le; 136.125<br/>gini = 0.2188<br/>samples = 8<br/>value = [1, 7]<br/>class = Radiant>, fillcolor="#399de5db"] ;
664 -> 665 ;
666 [label=<gini = 0.0<br/>samples = 1<br/>value = [1, 0]<br/>class = Dire>, fillcolor="#e58139ff"] ;
665 -> 666 ;
667 [label=<gini = 0.0<br/>samples = 7<br/>value = [0, 7]<br/>class = Radiant>, fillcolor="#399de5ff"] ;
665 -> 667 ;
668 [label=<radiant_team_delta month &le; -47.7<br/>gini = 0.4983<br/>samples = 34<br/>value = [16, 18]<br/>class = Radiant>, fillcolor="#399de51c"] ;
664 -> 668 ;
669 [label=<dire_team_glicko mu &le; 1967.65<br/>gini = 0.4922<br/>samples = 16<br/>value = [7, 9]<br/>class = Radiant>, fillcolor="#399de539"] ;
668 -> 669 ;
670 [label=<radiant_team_elo monthly avg &le; 1288.3301<br/>gini = 0.5<br/>samples = 10<br/>value = [5, 5]<br/>class = Dire>, fillcolor="#e5813900"] ;
669 -> 670 ;
671 [label=<gini = 0.5<br/>samples = 6<br/>value = [3, 3]<br/>class = Dire>, fillcolor="#e5813900"] ;
670 -> 671 ;
672 [label=<gini = 0.5<br/>samples = 4<br/>value = [2, 2]<br/>class = Dire>, fillcolor="#e5813900"] ;
670 -> 672 ;
673 [label=<radiant_team_glicko rating &le; 1629.1799<br/>gini = 0.4444<br/>samples = 6<br/>value = [2, 4]<br/>class = Radiant>, fillcolor="#399de57f"] ;
669 -> 673 ;
674 [label=<gini = 0.48<br/>samples = 5<br/>value = [2, 3]<br/>class = Radiant>, fillcolor="#399de555"] ;
673 -> 674 ;
675 [label=<gini = 0.0<br/>samples = 1<br/>value = [0, 1]<br/>class = Radiant>, fillcolor="#399de5ff"] ;
673 -> 675 ;
676 [label=<dire_team_delta week &le; -5.15<br/>gini = 0.5<br/>samples = 18<br/>value = [9, 9]<br/>class = Dire>, fillcolor="#e5813900"] ;
668 -> 676 ;
677 [label=<radiant_team_glicko rating &le; 1601.2<br/>gini = 0.4898<br/>samples = 7<br/>value = [4, 3]<br/>class = Dire>, fillcolor="#e5813940"] ;
676 -> 677 ;
678 [label=<gini = 0.4444<br/>samples = 3<br/>value = [2, 1]<br/>class = Dire>, fillcolor="#e581397f"] ;
677 -> 678 ;
679 [label=<radiant_team_delta month &le; 40.9<br/>gini = 0.5<br/>samples = 4<br/>value = [2, 2]<br/>class = Dire>, fillcolor="#e5813900"] ;
677 -> 679 ;
680 [label=<gini = 0.5<br/>samples = 2<br/>value = [1, 1]<br/>class = Dire>, fillcolor="#e5813900"] ;
679 -> 680 ;
681 [label=<gini = 0.5<br/>samples = 2<br/>value = [1, 1]<br/>class = Dire>, fillcolor="#e5813900"] ;
679 -> 681 ;
682 [label=<radiant_team_elo avg active &le; 1225.54<br/>gini = 0.4959<br/>samples = 11<br/>value = [5, 6]<br/>class = Radiant>, fillcolor="#399de52a"] ;
676 -> 682 ;
683 [label=<gini = 0.0<br/>samples = 1<br/>value = [0, 1]<br/>class = Radiant>, fillcolor="#399de5ff"] ;
682 -> 683 ;
684 [label=<radiant_team_delta month &le; 68.8<br/>gini = 0.5<br/>samples = 10<br/>value = [5, 5]<br/>class = Dire>, fillcolor="#e5813900"] ;
682 -> 684 ;
685 [label=<gini = 0.5<br/>samples = 2<br/>value = [1, 1]<br/>class = Dire>, fillcolor="#e5813900"] ;
684 -> 685 ;
686 [label=<gini = 0.5<br/>samples = 8<br/>value = [4, 4]<br/>class = Dire>, fillcolor="#e5813900"] ;
684 -> 686 ;
687 [label=<dire_team_glicko2 phi &le; 48.455<br/>gini = 0.4728<br/>samples = 313<br/>value = [193, 120]<br/>class = Dire>, fillcolor="#e5813960"] ;
541 -> 687 ;
688 [label=<dire_team_elo monthly avg &le; 1326.375<br/>gini = 0.4806<br/>samples = 284<br/>value = [170, 114]<br/>class = Dire>, fillcolor="#e5813954"] ;
687 -> 688 ;
689 [label=<radiant_team_glicko2 phi &le; 46.875<br/>gini = 0.4877<br/>samples = 249<br/>value = [144, 105]<br/>class = Dire>, fillcolor="#e5813945"] ;
688 -> 689 ;
690 [label=<dire_team_delta week &le; -1.8<br/>gini = 0.4959<br/>samples = 187<br/>value = [102, 85]<br/>class = Dire>, fillcolor="#e581392a"] ;
689 -> 690 ;
691 [label=<radiant_team_losses &le; 247.5<br/>gini = 0.4973<br/>samples = 54<br/>value = [25, 29]<br/>class = Radiant>, fillcolor="#399de523"] ;
690 -> 691 ;
692 [label=<dire_team_glicko2 phi &le; 39.97<br/>gini = 0.4527<br/>samples = 26<br/>value = [9, 17]<br/>class = Radiant>, fillcolor="#399de578"] ;
691 -> 692 ;
693 [label=<radiant_team_glicko2 rating &le; 1729.9099<br/>gini = 0.4688<br/>samples = 8<br/>value = [5, 3]<br/>class = Dire>, fillcolor="#e5813966"] ;
692 -> 693 ;
694 [label=<gini = 0.4444<br/>samples = 3<br/>value = [2, 1]<br/>class = Dire>, fillcolor="#e581397f"] ;
693 -> 694 ;
695 [label=<gini = 0.48<br/>samples = 5<br/>value = [3, 2]<br/>class = Dire>, fillcolor="#e5813955"] ;
693 -> 695 ;
696 [label=<dire_team_wins &le; 142.5<br/>gini = 0.3457<br/>samples = 18<br/>value = [4, 14]<br/>class = Radiant>, fillcolor="#399de5b6"] ;
692 -> 696 ;
697 [label=<gini = 0.0<br/>samples = 3<br/>value = [0, 3]<br/>class = Radiant>, fillcolor="#399de5ff"] ;
696 -> 697 ;
698 [label=<dire_team_elo avg active &le; 1211.91<br/>gini = 0.3911<br/>samples = 15<br/>value = [4, 11]<br/>class = Radiant>, fillcolor="#399de5a2"] ;
696 -> 698 ;
699 [label=<gini = 0.5<br/>samples = 2<br/>value = [1, 1]<br/>class = Dire>, fillcolor="#e5813900"] ;
698 -> 699 ;
700 [label=<dire_team_elo monthly avg &le; 1277.4351<br/>gini = 0.355<br/>samples = 13<br/>value = [3, 10]<br/>class = Radiant>, fillcolor="#399de5b3"] ;
698 -> 700 ;
701 [label=<radiant_team_glicko sigma &le; 111.68<br/>gini = 0.32<br/>samples = 5<br/>value = [1, 4]<br/>class = Radiant>, fillcolor="#399de5bf"] ;
700 -> 701 ;
702 [label=<gini = 0.0<br/>samples = 2<br/>value = [0, 2]<br/>class = Radiant>, fillcolor="#399de5ff"] ;
701 -> 702 ;
703 [label=<gini = 0.4444<br/>samples = 3<br/>value = [1, 2]<br/>class = Radiant>, fillcolor="#399de57f"] ;
701 -> 703 ;
704 [label=<radiant_team_glicko2 phi &le; 45.19<br/>gini = 0.375<br/>samples = 8<br/>value = [2, 6]<br/>class = Radiant>, fillcolor="#399de5aa"] ;
700 -> 704 ;
705 [label=<dire_team_glicko2 mu &le; 1893.745<br/>gini = 0.2778<br/>samples = 6<br/>value = [1, 5]<br/>class = Radiant>, fillcolor="#399de5cc"] ;
704 -> 705 ;
706 [label=<gini = 0.0<br/>samples = 2<br/>value = [0, 2]<br/>class = Radiant>, fillcolor="#399de5ff"] ;
705 -> 706 ;
707 [label=<gini = 0.375<br/>samples = 4<br/>value = [1, 3]<br/>class = Radiant>, fillcolor="#399de5aa"] ;
705 -> 707 ;
708 [label=<gini = 0.5<br/>samples = 2<br/>value = [1, 1]<br/>class = Dire>, fillcolor="#e5813900"] ;
704 -> 708 ;
709 [label=<dire_team_glicko sigma &le; 94.01<br/>gini = 0.4898<br/>samples = 28<br/>value = [16, 12]<br/>class = Dire>, fillcolor="#e5813940"] ;
691 -> 709 ;
710 [label=<gini = 0.0<br/>samples = 3<br/>value = [3, 0]<br/>class = Dire>, fillcolor="#e58139ff"] ;
709 -> 710 ;
711 [label=<radiant_team_glicko mu &le; 2007.27<br/>gini = 0.4992<br/>samples = 25<br/>value = [13, 12]<br/>class = Dire>, fillcolor="#e5813914"] ;
709 -> 711 ;
712 [label=<gini = 0.0<br/>samples = 1<br/>value = [0, 1]<br/>class = Radiant>, fillcolor="#399de5ff"] ;
711 -> 712 ;
713 [label=<dire_team_losses &le; 325.0<br/>gini = 0.4965<br/>samples = 24<br/>value = [13, 11]<br/>class = Dire>, fillcolor="#e5813927"] ;
711 -> 713 ;
714 [label=<dire_team_glicko mu &le; 1958.46<br/>gini = 0.4592<br/>samples = 14<br/>value = [9, 5]<br/>class = Dire>, fillcolor="#e5813971"] ;
713 -> 714 ;
715 [label=<dire_team_glicko2 rating &le; 1707.53<br/>gini = 0.48<br/>samples = 10<br/>value = [6, 4]<br/>class = Dire>, fillcolor="#e5813955"] ;
714 -> 715 ;
716 [label=<gini = 0.5<br/>samples = 2<br/>value = [1, 1]<br/>class = Dire>, fillcolor="#e5813900"] ;
715 -> 716 ;
