digraph Tree {
node [shape=box, style="filled, rounded", color="black", fontname=helvetica] ;
edge [fontname=helvetica] ;
0 [label=<radiant_ban_4:ATKPT &le; 2.5<br/>gini = 0.499<br/>samples = 444<br/>value = [232, 212]<br/>class = Dire>, fillcolor="#e5813916"] ;
1 [label=<radiant_ban_1:AR &le; 50.5<br/>gini = 0.4897<br/>samples = 348<br/>value = [199, 149]<br/>class = Dire>, fillcolor="#e5813940"] ;
0 -> 1 [labeldistance=2.5, labelangle=45, headlabel="True"] ;
2 [label=<radiant_pick_3:ATKPT &le; 302.5<br/>gini = 0.3265<br/>samples = 73<br/>value = [58, 15]<br/>class = Dire>, fillcolor="#e58139bd"] ;
1 -> 2 ;
3 [label=<dire_pick_1:BAT &le; 10.5<br/>gini = 0.0907<br/>samples = 42<br/>value = [40, 2]<br/>class = Dire>, fillcolor="#e58139f2"] ;
2 -> 3 ;
4 [label=<radiant_pick_1:STR+ &le; 425.0<br/>gini = 0.4444<br/>samples = 3<br/>value = [1, 2]<br/>class = Radiant>, fillcolor="#399de57f"] ;
3 -> 4 ;
5 [label=<gini = 0.0<br/>samples = 1<br/>value = [1, 0]<br/>class = Dire>, fillcolor="#e58139ff"] ;
4 -> 5 ;
6 [label=<gini = 0.0<br/>samples = 2<br/>value = [0, 2]<br/>class = Radiant>, fillcolor="#399de5ff"] ;
4 -> 6 ;
7 [label=<gini = 0.0<br/>samples = 39<br/>value = [39, 0]<br/>class = Dire>, fillcolor="#e58139ff"] ;
3 -> 7 ;
8 [label=<dire_ban_3:ATT &le; 1.95<br/>gini = 0.487<br/>samples = 31<br/>value = [18, 13]<br/>class = Dire>, fillcolor="#e5813947"] ;
2 -> 8 ;
9 [label=<radiant_ban_3:ATT &le; 1.6<br/>gini = 0.355<br/>samples = 13<br/>value = [3, 10]<br/>class = Radiant>, fillcolor="#399de5b3"] ;
8 -> 9 ;
10 [label=<gini = 0.0<br/>samples = 3<br/>value = [3, 0]<br/>class = Dire>, fillcolor="#e58139ff"] ;
9 -> 10 ;
11 [label=<gini = 0.0<br/>samples = 10<br/>value = [0, 10]<br/>class = Radiant>, fillcolor="#399de5ff"] ;
9 -> 11 ;
12 [label=<dire_pick_0: FARM PRIORITY &le; 206.25<br/>gini = 0.2778<br/>samples = 18<br/>value = [15, 3]<br/>class = Dire>, fillcolor="#e58139cc"] ;
8 -> 12 ;
13 [label=<gini = 0.0<br/>samples = 3<br/>value = [0, 3]<br/>class = Radiant>, fillcolor="#399de5ff"] ;
12 -> 13 ;
14 [label=<gini = 0.0<br/>samples = 15<br/>value = [15, 0]<br/>class = Dire>, fillcolor="#e58139ff"] ;
12 -> 14 ;
15 [label=<dire_ban_0:VIS-N &le; 0.81<br/>gini = 0.4997<br/>samples = 275<br/>value = [141, 134]<br/>class = Dire>, fillcolor="#e581390d"] ;
1 -> 15 ;
16 [label=<dire_pick_1:BAT &le; 13.5<br/>gini = 0.4995<br/>samples = 258<br/>value = [125, 133]<br/>class = Radiant>, fillcolor="#399de50f"] ;
15 -> 16 ;
17 [label=<dire_ban_1:T+ &le; 5.45<br/>gini = 0.3807<br/>samples = 43<br/>value = [11, 32]<br/>class = Radiant>, fillcolor="#399de5a7"] ;
16 -> 17 ;
18 [label=<dire_ban_0:VIS-N &le; 0.405<br/>gini = 0.2778<br/>samples = 6<br/>value = [5, 1]<br/>class = Dire>, fillcolor="#e58139cc"] ;
17 -> 18 ;
19 [label=<gini = 0.0<br/>samples = 1<br/>value = [0, 1]<br/>class = Radiant>, fillcolor="#399de5ff"] ;
18 -> 19 ;
20 [label=<gini = 0.0<br/>samples = 5<br/>value = [5, 0]<br/>class = Dire>, fillcolor="#e58139ff"] ;
18 -> 20 ;
21 [label=<radiant_ban_2:STR+ &le; 2.95<br/>gini = 0.2717<br/>samples = 37<br/>value = [6, 31]<br/>class = Radiant>, fillcolor="#399de5ce"] ;
17 -> 21 ;
22 [label=<dire_ban_4:STR &le; 51.5<br/>gini = 0.1653<br/>samples = 33<br/>value = [3, 30]<br/>class = Radiant>, fillcolor="#399de5e6"] ;
21 -> 22 ;
23 [label=<gini = 0.0<br/>samples = 2<br/>value = [2, 0]<br/>class = Dire>, fillcolor="#e58139ff"] ;
22 -> 23 ;
24 [label=<dire_ban_2:STR+ &le; 3.25<br/>gini = 0.0624<br/>samples = 31<br/>value = [1, 30]<br/>class = Radiant>, fillcolor="#399de5f6"] ;
22 -> 24 ;
25 [label=<gini = 0.0<br/>samples = 30<br/>value = [0, 30]<br/>class = Radiant>, fillcolor="#399de5ff"] ;
24 -> 25 ;
26 [label=<gini = 0.0<br/>samples = 1<br/>value = [1, 0]<br/>class = Dire>, fillcolor="#e58139ff"] ;
24 -> 26 ;
27 [label=<radiant_ban_4:INT &le; 56.0<br/>gini = 0.375<br/>samples = 4<br/>value = [3, 1]<br/>class = Dire>, fillcolor="#e58139aa"] ;
21 -> 27 ;
28 [label=<gini = 0.0<br/>samples = 1<br/>value = [0, 1]<br/>class = Radiant>, fillcolor="#399de5ff"] ;
27 -> 28 ;
29 [label=<gini = 0.0<br/>samples = 3<br/>value = [3, 0]<br/>class = Dire>, fillcolor="#e58139ff"] ;
27 -> 29 ;
30 [label=<dire_ban_2:STR+ &le; 2.35<br/>gini = 0.4982<br/>samples = 215<br/>value = [114, 101]<br/>class = Dire>, fillcolor="#e581391d"] ;
16 -> 30 ;
31 [label=<radiant_ban_3:T &le; 53.5<br/>gini = 0.4961<br/>samples = 147<br/>value = [67, 80]<br/>class = Radiant>, fillcolor="#399de529"] ;
30 -> 31 ;
32 [label=<radiant_pick_2:TURN &le; 41.0<br/>gini = 0.4058<br/>samples = 53<br/>value = [15, 38]<br/>class = Radiant>, fillcolor="#399de59a"] ;
31 -> 32 ;
33 [label=<gini = 0.0<br/>samples = 4<br/>value = [4, 0]<br/>class = Dire>, fillcolor="#e58139ff"] ;
32 -> 33 ;
34 [label=<dire_ban_2:RNG &le; 0.595<br/>gini = 0.3482<br/>samples = 49<br/>value = [11, 38]<br/>class = Radiant>, fillcolor="#399de5b5"] ;
32 -> 34 ;
35 [label=<dire_pick_0:INT &le; 48.5<br/>gini = 0.2627<br/>samples = 45<br/>value = [7, 38]<br/>class = Radiant>, fillcolor="#399de5d0"] ;
34 -> 35 ;
36 [label=<radiant_pick_3:STR &le; 0.805<br/>gini = 0.32<br/>samples = 5<br/>value = [4, 1]<br/>class = Dire>, fillcolor="#e58139bf"] ;
35 -> 36 ;
37 [label=<gini = 0.0<br/>samples = 4<br/>value = [4, 0]<br/>class = Dire>, fillcolor="#e58139ff"] ;
36 -> 37 ;
38 [label=<gini = 0.0<br/>samples = 1<br/>value = [0, 1]<br/>class = Radiant>, fillcolor="#399de5ff"] ;
36 -> 38 ;
39 [label=<dire_pick_2:STR &le; 41.5<br/>gini = 0.1388<br/>samples = 40<br/>value = [3, 37]<br/>class = Radiant>, fillcolor="#399de5ea"] ;
35 -> 39 ;
40 [label=<gini = 0.0<br/>samples = 2<br/>value = [2, 0]<br/>class = Dire>, fillcolor="#e58139ff"] ;
39 -> 40 ;
41 [label=<dire_pick_1:AGI &le; 48.0<br/>gini = 0.0512<br/>samples = 38<br/>value = [1, 37]<br/>class = Radiant>, fillcolor="#399de5f8"] ;
39 -> 41 ;
42 [label=<gini = 0.0<br/>samples = 1<br/>value = [1, 0]<br/>class = Dire>, fillcolor="#e58139ff"] ;
41 -> 42 ;
43 [label=<gini = 0.0<br/>samples = 37<br/>value = [0, 37]<br/>class = Radiant>, fillcolor="#399de5ff"] ;
41 -> 43 ;
44 [label=<gini = 0.0<br/>samples = 4<br/>value = [4, 0]<br/>class = Dire>, fillcolor="#e58139ff"] ;
34 -> 44 ;
45 [label=<radiant_pick_1:COLL &le; 4.16<br/>gini = 0.4943<br/>samples = 94<br/>value = [52, 42]<br/>class = Dire>, fillcolor="#e5813931"] ;
31 -> 45 ;
46 [label=<radiant_pick_3:MOV &le; 1.75<br/>gini = 0.4477<br/>samples = 68<br/>value = [45, 23]<br/>class = Dire>, fillcolor="#e581397d"] ;
45 -> 46 ;
47 [label=<dire_pick_0:DMG MIN &le; 0.65<br/>gini = 0.1472<br/>samples = 25<br/>value = [23, 2]<br/>class = Dire>, fillcolor="#e58139e9"] ;
46 -> 47 ;
48 [label=<gini = 0.0<br/>samples = 23<br/>value = [23, 0]<br/>class = Dire>, fillcolor="#e58139ff"] ;
47 -> 48 ;
49 [label=<gini = 0.0<br/>samples = 2<br/>value = [0, 2]<br/>class = Radiant>, fillcolor="#399de5ff"] ;
47 -> 49 ;
50 [label=<dire_pick_2:ATT &le; 42.0<br/>gini = 0.4997<br/>samples = 43<br/>value = [22, 21]<br/>class = Dire>, fillcolor="#e581390c"] ;
46 -> 50 ;
51 [label=<gini = 0.0<br/>samples = 8<br/>value = [8, 0]<br/>class = Dire>, fillcolor="#e58139ff"] ;
50 -> 51 ;
52 [label=<radiant_pick_3:ATT &le; 0.38<br/>gini = 0.48<br/>samples = 35<br/>value = [14, 21]<br/>class = Radiant>, fillcolor="#399de555"] ;
50 -> 52 ;
53 [label=<dire_ban_2:T &le; 225.25<br/>gini = 0.2311<br/>samples = 15<br/>value = [2, 13]<br/>class = Radiant>, fillcolor="#399de5d8"] ;
52 -> 53 ;
54 [label=<gini = 0.0<br/>samples = 13<br/>value = [0, 13]<br/>class = Radiant>, fillcolor="#399de5ff"] ;
53 -> 54 ;
55 [label=<gini = 0.0<br/>samples = 2<br/>value = [2, 0]<br/>class = Dire>, fillcolor="#e58139ff"] ;
53 -> 55 ;
56 [label=<dire_pick_0:HP/S &le; 6.35<br/>gini = 0.48<br/>samples = 20<br/>value = [12, 8]<br/>class = Dire>, fillcolor="#e5813955"] ;
52 -> 56 ;
57 [label=<gini = 0.0<br/>samples = 9<br/>value = [9, 0]<br/>class = Dire>, fillcolor="#e58139ff"] ;
56 -> 57 ;
58 [label=<radiant_ban_3:T &le; 62.0<br/>gini = 0.3967<br/>samples = 11<br/>value = [3, 8]<br/>class = Radiant>, fillcolor="#399de59f"] ;
56 -> 58 ;
59 [label=<gini = 0.0<br/>samples = 7<br/>value = [0, 7]<br/>class = Radiant>, fillcolor="#399de5ff"] ;
58 -> 59 ;
60 [label=<radiant_ban_3: FARM PRIORITY &le; 53.5<br/>gini = 0.375<br/>samples = 4<br/>value = [3, 1]<br/>class = Dire>, fillcolor="#e58139aa"] ;
58 -> 60 ;
61 [label=<gini = 0.0<br/>samples = 1<br/>value = [0, 1]<br/>class = Radiant>, fillcolor="#399de5ff"] ;
60 -> 61 ;
62 [label=<gini = 0.0<br/>samples = 3<br/>value = [3, 0]<br/>class = Dire>, fillcolor="#e58139ff"] ;
60 -> 62 ;
63 [label=<dire_ban_2:COLL &le; 19.5<br/>gini = 0.3935<br/>samples = 26<br/>value = [7, 19]<br/>class = Radiant>, fillcolor="#399de5a1"] ;
45 -> 63 ;
64 [label=<dire_pick_3:AGI &le; 0.52<br/>gini = 0.4628<br/>samples = 11<br/>value = [7, 4]<br/>class = Dire>, fillcolor="#e581396d"] ;
63 -> 64 ;
65 [label=<gini = 0.0<br/>samples = 4<br/>value = [0, 4]<br/>class = Radiant>, fillcolor="#399de5ff"] ;
64 -> 65 ;
66 [label=<gini = 0.0<br/>samples = 7<br/>value = [7, 0]<br/>class = Dire>, fillcolor="#e58139ff"] ;
64 -> 66 ;
67 [label=<gini = 0.0<br/>samples = 15<br/>value = [0, 15]<br/>class = Radiant>, fillcolor="#399de5ff"] ;
63 -> 67 ;
68 [label=<dire_ban_0:AR &le; 215.0<br/>gini = 0.4269<br/>samples = 68<br/>value = [47, 21]<br/>class = Dire>, fillcolor="#e581398d"] ;
30 -> 68 ;
69 [label=<dire_pick_1:HP/S &le; 302.5<br/>gini = 0.4835<br/>samples = 22<br/>value = [9, 13]<br/>class = Radiant>, fillcolor="#399de54e"] ;
68 -> 69 ;
70 [label=<radiant_pick_0:T &le; 0.67<br/>gini = 0.426<br/>samples = 13<br/>value = [9, 4]<br/>class = Dire>, fillcolor="#e581398e"] ;
69 -> 70 ;
71 [label=<gini = 0.0<br/>samples = 8<br/>value = [8, 0]<br/>class = Dire>, fillcolor="#e58139ff"] ;
70 -> 71 ;
72 [label=<radiant_pick_2:DMG MIN &le; 1.55<br/>gini = 0.32<br/>samples = 5<br/>value = [1, 4]<br/>class = Radiant>, fillcolor="#399de5bf"] ;
70 -> 72 ;
73 [label=<gini = 0.0<br/>samples = 1<br/>value = [1, 0]<br/>class = Dire>, fillcolor="#e58139ff"] ;
72 -> 73 ;
74 [label=<gini = 0.0<br/>samples = 4<br/>value = [0, 4]<br/>class = Radiant>, fillcolor="#399de5ff"] ;
72 -> 74 ;
75 [label=<gini = 0.0<br/>samples = 9<br/>value = [0, 9]<br/>class = Radiant>, fillcolor="#399de5ff"] ;
69 -> 75 ;
76 [label=<dire_ban_1:LVL 25 &le; 227.75<br/>gini = 0.2873<br/>samples = 46<br/>value = [38, 8]<br/>class = Dire>, fillcolor="#e58139c9"] ;
68 -> 76 ;
77 [label=<radiant_ban_3:COLL &le; 26.5<br/>gini = 0.1723<br/>samples = 42<br/>value = [38, 4]<br/>class = Dire>, fillcolor="#e58139e4"] ;
76 -> 77 ;
78 [label=<radiant_ban_2:HP/S &le; 0.85<br/>gini = 0.095<br/>samples = 40<br/>value = [38, 2]<br/>class = Dire>, fillcolor="#e58139f2"] ;
77 -> 78 ;
79 [label=<gini = 0.0<br/>samples = 1<br/>value = [0, 1]<br/>class = Radiant>, fillcolor="#399de5ff"] ;
78 -> 79 ;
80 [label=<dire_ban_3:AR &le; 1.9<br/>gini = 0.05<br/>samples = 39<br/>value = [38, 1]<br/>class = Dire>, fillcolor="#e58139f8"] ;
78 -> 80 ;
81 [label=<gini = 0.0<br/>samples = 38<br/>value = [38, 0]<br/>class = Dire>, fillcolor="#e58139ff"] ;
80 -> 81 ;
82 [label=<gini = 0.0<br/>samples = 1<br/>value = [0, 1]<br/>class = Radiant>, fillcolor="#399de5ff"] ;
80 -> 82 ;
83 [label=<gini = 0.0<br/>samples = 2<br/>value = [0, 2]<br/>class = Radiant>, fillcolor="#399de5ff"] ;
77 -> 83 ;
84 [label=<gini = 0.0<br/>samples = 4<br/>value = [0, 4]<br/>class = Radiant>, fillcolor="#399de5ff"] ;
76 -> 84 ;
85 [label=<dire_pick_0:AGI &le; 6.03<br/>gini = 0.1107<br/>samples = 17<br/>value = [16, 1]<br/>class = Dire>, fillcolor="#e58139ef"] ;
15 -> 85 ;
86 [label=<gini = 0.0<br/>samples = 16<br/>value = [16, 0]<br/>class = Dire>, fillcolor="#e58139ff"] ;
85 -> 86 ;
87 [label=<gini = 0.0<br/>samples = 1<br/>value = [0, 1]<br/>class = Radiant>, fillcolor="#399de5ff"] ;
85 -> 87 ;
88 [label=<dire_pick_0: FARM PRIORITY &le; 205.25<br/>gini = 0.4512<br/>samples = 96<br/>value = [33, 63]<br/>class = Radiant>, fillcolor="#399de579"] ;
0 -> 88 [labeldistance=2.5, labelangle=-45, headlabel="False"] ;
89 [label=<radiant_ban_3:T &le; 53.5<br/>gini = 0.4717<br/>samples = 21<br/>value = [13, 8]<br/>class = Dire>, fillcolor="#e5813962"] ;
88 -> 89 ;
90 [label=<radiant_ban_0:AGI+ &le; 3.0<br/>gini = 0.2449<br/>samples = 7<br/>value = [1, 6]<br/>class = Radiant>, fillcolor="#399de5d4"] ;
89 -> 90 ;
91 [label=<gini = 0.0<br/>samples = 6<br/>value = [0, 6]<br/>class = Radiant>, fillcolor="#399de5ff"] ;
90 -> 91 ;
92 [label=<gini = 0.0<br/>samples = 1<br/>value = [1, 0]<br/>class = Dire>, fillcolor="#e58139ff"] ;
90 -> 92 ;
93 [label=<radiant_pick_1:DMG MIN &le; 2.35<br/>gini = 0.2449<br/>samples = 14<br/>value = [12, 2]<br/>class = Dire>, fillcolor="#e58139d4"] ;
89 -> 93 ;
94 [label=<gini = 0.0<br/>samples = 12<br/>value = [12, 0]<br/>class = Dire>, fillcolor="#e58139ff"] ;
93 -> 94 ;
95 [label=<gini = 0.0<br/>samples = 2<br/>value = [0, 2]<br/>class = Radiant>, fillcolor="#399de5ff"] ;
93 -> 95 ;
96 [label=<radiant_pick_2:TURN &le; 59.0<br/>gini = 0.3911<br/>samples = 75<br/>value = [20, 55]<br/>class = Radiant>, fillcolor="#399de5a2"] ;
88 -> 96 ;
97 [label=<radiant_pick_4:T+ &le; 2.175<br/>gini = 0.3403<br/>samples = 69<br/>value = [15, 54]<br/>class = Radiant>, fillcolor="#399de5b8"] ;
96 -> 97 ;
98 [label=<radiant_ban_1:BAT &le; 0.35<br/>gini = 0.2515<br/>samples = 61<br/>value = [9, 52]<br/>class = Radiant>, fillcolor="#399de5d3"] ;
97 -> 98 ;
99 [label=<dire_pick_1:AGI+ &le; 246.5<br/>gini = 0.4082<br/>samples = 7<br/>value = [5, 2]<br/>class = Dire>, fillcolor="#e5813999"] ;
98 -> 99 ;
100 [label=<gini = 0.0<br/>samples = 2<br/>value = [0, 2]<br/>class = Radiant>, fillcolor="#399de5ff"] ;
99 -> 100 ;
101 [label=<gini = 0.0<br/>samples = 5<br/>value = [5, 0]<br/>class = Dire>, fillcolor="#e58139ff"] ;
99 -> 101 ;
102 [label=<dire_pick_1:INT+ &le; 0.595<br/>gini = 0.1372<br/>samples = 54<br/>value = [4, 50]<br/>class = Radiant>, fillcolor="#399de5eb"] ;
98 -> 102 ;
103 [label=<dire_ban_1:STR &le; 27.5<br/>gini = 0.074<br/>samples = 52<br/>value = [2, 50]<br/>class = Radiant>, fillcolor="#399de5f5"] ;
102 -> 103 ;
104 [label=<dire_ban_2:ATT &le; 2.95<br/>gini = 0.0384<br/>samples = 51<br/>value = [1, 50]<br/>class = Radiant>, fillcolor="#399de5fa"] ;
103 -> 104 ;
105 [label=<gini = 0.0<br/>samples = 50<br/>value = [0, 50]<br/>class = Radiant>, fillcolor="#399de5ff"] ;
104 -> 105 ;
106 [label=<gini = 0.0<br/>samples = 1<br/>value = [1, 0]<br/>class = Dire>, fillcolor="#e58139ff"] ;
104 -> 106 ;
107 [label=<gini = 0.0<br/>samples = 1<br/>value = [1, 0]<br/>class = Dire>, fillcolor="#e58139ff"] ;
103 -> 107 ;
108 [label=<gini = 0.0<br/>samples = 2<br/>value = [2, 0]<br/>class = Dire>, fillcolor="#e58139ff"] ;
102 -> 108 ;
109 [label=<dire_pick_0:T &le; 1.6<br/>gini = 0.375<br/>samples = 8<br/>value = [6, 2]<br/>class = Dire>, fillcolor="#e58139aa"] ;
97 -> 109 ;
110 [label=<gini = 0.0<br/>samples = 2<br/>value = [0, 2]<br/>class = Radiant>, fillcolor="#399de5ff"] ;
109 -> 110 ;
111 [label=<gini = 0.0<br/>samples = 6<br/>value = [6, 0]<br/>class = Dire>, fillcolor="#e58139ff"] ;
109 -> 111 ;
112 [label=<radiant_ban_2:T+ &le; 58.5<br/>gini = 0.2778<br/>samples = 6<br/>value = [5, 1]<br/>class = Dire>, fillcolor="#e58139cc"] ;
96 -> 112 ;
113 [label=<gini = 0.0<br/>samples = 5<br/>value = [5, 0]<br/>class = Dire>, fillcolor="#e58139ff"] ;
112 -> 113 ;
114 [label=<gini = 0.0<br/>samples = 1<br/>value = [0, 1]<br/>class = Radiant>, fillcolor="#399de5ff"] ;
112 -> 114 ;
}