digraph Tree {
node [shape=box] ;
0 [label="X[10] <= 94.0\ngini = 0.4998\nsamples = 444\nvalue = [218, 226]"] ;
1 [label="X[5] <= 24.0\ngini = 0.4962\nsamples = 366\nvalue = [167, 199]"] ;
0 -> 1 [labeldistance=2.5, labelangle=45, headlabel="True"] ;
2 [label="X[7] <= 68.5\ngini = 0.4778\nsamples = 76\nvalue = [46, 30]"] ;
1 -> 2 ;
3 [label="X[13] <= 53.0\ngini = 0.3898\nsamples = 49\nvalue = [36, 13]"] ;
2 -> 3 ;
4 [label="gini = 0.0\nsamples = 17\nvalue = [17, 0]"] ;
3 -> 4 ;
5 [label="X[9] <= 71.5\ngini = 0.4824\nsamples = 32\nvalue = [19, 13]"] ;
3 -> 5 ;
6 [label="X[10] <= 30.5\ngini = 0.3324\nsamples = 19\nvalue = [15, 4]"] ;
5 -> 6 ;
7 [label="X[9] <= 33.5\ngini = 0.375\nsamples = 4\nvalue = [1, 3]"] ;
6 -> 7 ;
8 [label="gini = 0.0\nsamples = 1\nvalue = [1, 0]"] ;
7 -> 8 ;
9 [label="gini = 0.0\nsamples = 3\nvalue = [0, 3]"] ;
7 -> 9 ;
10 [label="X[14] <= 2.0\ngini = 0.1244\nsamples = 15\nvalue = [14, 1]"] ;
6 -> 10 ;
11 [label="gini = 0.0\nsamples = 1\nvalue = [0, 1]"] ;
10 -> 11 ;
12 [label="gini = 0.0\nsamples = 14\nvalue = [14, 0]"] ;
10 -> 12 ;
13 [label="X[10] <= 90.0\ngini = 0.426\nsamples = 13\nvalue = [4, 9]"] ;
5 -> 13 ;
14 [label="X[14] <= 90.5\ngini = 0.2975\nsamples = 11\nvalue = [2, 9]"] ;
13 -> 14 ;
15 [label="X[18] <= 110.5\ngini = 0.18\nsamples = 10\nvalue = [1, 9]"] ;
14 -> 15 ;
16 [label="gini = 0.0\nsamples = 9\nvalue = [0, 9]"] ;
15 -> 16 ;
17 [label="gini = 0.0\nsamples = 1\nvalue = [1, 0]"] ;
15 -> 17 ;
18 [label="gini = 0.0\nsamples = 1\nvalue = [1, 0]"] ;
14 -> 18 ;
19 [label="gini = 0.0\nsamples = 2\nvalue = [2, 0]"] ;
13 -> 19 ;
20 [label="X[13] <= 42.5\ngini = 0.4664\nsamples = 27\nvalue = [10, 17]"] ;
2 -> 20 ;
21 [label="X[14] <= 100.5\ngini = 0.2311\nsamples = 15\nvalue = [2, 13]"] ;
20 -> 21 ;
22 [label="gini = 0.0\nsamples = 13\nvalue = [0, 13]"] ;
21 -> 22 ;
23 [label="gini = 0.0\nsamples = 2\nvalue = [2, 0]"] ;
21 -> 23 ;
24 [label="X[20] <= 35.5\ngini = 0.4444\nsamples = 12\nvalue = [8, 4]"] ;
20 -> 24 ;
25 [label="gini = 0.0\nsamples = 6\nvalue = [6, 0]"] ;
24 -> 25 ;
26 [label="X[4] <= 38.5\ngini = 0.4444\nsamples = 6\nvalue = [2, 4]"] ;
24 -> 26 ;
27 [label="X[5] <= 19.0\ngini = 0.4444\nsamples = 3\nvalue = [2, 1]"] ;
26 -> 27 ;
28 [label="gini = 0.0\nsamples = 2\nvalue = [2, 0]"] ;
27 -> 28 ;
29 [label="gini = 0.0\nsamples = 1\nvalue = [0, 1]"] ;
27 -> 29 ;
30 [label="gini = 0.0\nsamples = 3\nvalue = [0, 3]"] ;
26 -> 30 ;
31 [label="X[12] <= 13.5\ngini = 0.4863\nsamples = 290\nvalue = [121, 169]"] ;
1 -> 31 ;
32 [label="X[14] <= 33.5\ngini = 0.3047\nsamples = 32\nvalue = [6, 26]"] ;
31 -> 32 ;
33 [label="X[20] <= 58.0\ngini = 0.497\nsamples = 13\nvalue = [6, 7]"] ;
32 -> 33 ;
34 [label="X[13] <= 99.0\ngini = 0.2449\nsamples = 7\nvalue = [1, 6]"] ;
33 -> 34 ;
35 [label="gini = 0.0\nsamples = 6\nvalue = [0, 6]"] ;
34 -> 35 ;
36 [label="gini = 0.0\nsamples = 1\nvalue = [1, 0]"] ;
34 -> 36 ;
37 [label="X[19] <= 75.0\ngini = 0.2778\nsamples = 6\nvalue = [5, 1]"] ;
33 -> 37 ;
38 [label="gini = 0.0\nsamples = 5\nvalue = [5, 0]"] ;
37 -> 38 ;
39 [label="gini = 0.0\nsamples = 1\nvalue = [0, 1]"] ;
37 -> 39 ;
40 [label="gini = 0.0\nsamples = 19\nvalue = [0, 19]"] ;
32 -> 40 ;
41 [label="X[18] <= 100.5\ngini = 0.4941\nsamples = 258\nvalue = [115, 143]"] ;
31 -> 41 ;
42 [label="X[3] <= 36.0\ngini = 0.4864\nsamples = 230\nvalue = [96, 134]"] ;
41 -> 42 ;
43 [label="X[19] <= 100.5\ngini = 0.4329\nsamples = 101\nvalue = [32, 69]"] ;
42 -> 43 ;
44 [label="X[9] <= 97.5\ngini = 0.3833\nsamples = 89\nvalue = [23, 66]"] ;
43 -> 44 ;
45 [label="X[16] <= 57.0\ngini = 0.3133\nsamples = 72\nvalue = [14, 58]"] ;
44 -> 45 ;
46 [label="X[20] <= 103.0\ngini = 0.1023\nsamples = 37\nvalue = [2, 35]"] ;
45 -> 46 ;
47 [label="gini = 0.0\nsamples = 33\nvalue = [0, 33]"] ;
46 -> 47 ;
48 [label="X[7] <= 57.5\ngini = 0.5\nsamples = 4\nvalue = [2, 2]"] ;
46 -> 48 ;
49 [label="gini = 0.0\nsamples = 2\nvalue = [0, 2]"] ;
48 -> 49 ;
50 [label="gini = 0.0\nsamples = 2\nvalue = [2, 0]"] ;
48 -> 50 ;
51 [label="X[12] <= 86.5\ngini = 0.4506\nsamples = 35\nvalue = [12, 23]"] ;
45 -> 51 ;
52 [label="X[8] <= 102.5\ngini = 0.355\nsamples = 26\nvalue = [6, 20]"] ;
51 -> 52 ;
53 [label="X[4] <= 19.0\ngini = 0.2449\nsamples = 21\nvalue = [3, 18]"] ;
52 -> 53 ;
54 [label="X[10] <= 18.0\ngini = 0.5\nsamples = 6\nvalue = [3, 3]"] ;
53 -> 54 ;
55 [label="gini = 0.0\nsamples = 3\nvalue = [3, 0]"] ;
54 -> 55 ;
56 [label="gini = 0.0\nsamples = 3\nvalue = [0, 3]"] ;
54 -> 56 ;
57 [label="gini = 0.0\nsamples = 15\nvalue = [0, 15]"] ;
53 -> 57 ;
58 [label="X[9] <= 51.0\ngini = 0.48\nsamples = 5\nvalue = [3, 2]"] ;
52 -> 58 ;
59 [label="gini = 0.0\nsamples = 3\nvalue = [3, 0]"] ;
58 -> 59 ;
60 [label="gini = 0.0\nsamples = 2\nvalue = [0, 2]"] ;
58 -> 60 ;
61 [label="X[2] <= 37.5\ngini = 0.4444\nsamples = 9\nvalue = [6, 3]"] ;
51 -> 61 ;
62 [label="gini = 0.0\nsamples = 5\nvalue = [5, 0]"] ;
61 -> 62 ;
63 [label="X[16] <= 96.0\ngini = 0.375\nsamples = 4\nvalue = [1, 3]"] ;
61 -> 63 ;
64 [label="gini = 0.0\nsamples = 3\nvalue = [0, 3]"] ;
63 -> 64 ;
65 [label="gini = 0.0\nsamples = 1\nvalue = [1, 0]"] ;
63 -> 65 ;
66 [label="X[11] <= 20.5\ngini = 0.4983\nsamples = 17\nvalue = [9, 8]"] ;
44 -> 66 ;
67 [label="gini = 0.0\nsamples = 4\nvalue = [0, 4]"] ;
66 -> 67 ;
68 [label="X[17] <= 58.5\ngini = 0.426\nsamples = 13\nvalue = [9, 4]"] ;
66 -> 68 ;
69 [label="gini = 0.0\nsamples = 7\nvalue = [7, 0]"] ;
68 -> 69 ;
70 [label="X[1] <= 34.0\ngini = 0.4444\nsamples = 6\nvalue = [2, 4]"] ;
68 -> 70 ;
71 [label="gini = 0.0\nsamples = 2\nvalue = [2, 0]"] ;
70 -> 71 ;
72 [label="gini = 0.0\nsamples = 4\nvalue = [0, 4]"] ;
70 -> 72 ;
73 [label="X[9] <= 13.0\ngini = 0.375\nsamples = 12\nvalue = [9, 3]"] ;
43 -> 73 ;
74 [label="X[19] <= 111.5\ngini = 0.375\nsamples = 4\nvalue = [1, 3]"] ;
73 -> 74 ;
75 [label="gini = 0.0\nsamples = 3\nvalue = [0, 3]"] ;
74 -> 75 ;
76 [label="gini = 0.0\nsamples = 1\nvalue = [1, 0]"] ;
74 -> 76 ;
77 [label="gini = 0.0\nsamples = 8\nvalue = [8, 0]"] ;
73 -> 77 ;
78 [label="X[20] <= 86.5\ngini = 0.5\nsamples = 129\nvalue = [64, 65]"] ;
42 -> 78 ;
79 [label="X[12] <= 62.5\ngini = 0.4931\nsamples = 111\nvalue = [49, 62]"] ;
78 -> 79 ;
80 [label="X[19] <= 97.5\ngini = 0.4959\nsamples = 66\nvalue = [36, 30]"] ;
79 -> 80 ;
81 [label="X[17] <= 22.5\ngini = 0.4786\nsamples = 58\nvalue = [35, 23]"] ;
80 -> 81 ;
82 [label="X[4] <= 37.5\ngini = 0.4567\nsamples = 17\nvalue = [6, 11]"] ;
81 -> 82 ;
83 [label="X[9] <= 88.0\ngini = 0.48\nsamples = 10\nvalue = [6, 4]"] ;
82 -> 83 ;
84 [label="X[1] <= 43.5\ngini = 0.375\nsamples = 8\nvalue = [6, 2]"] ;
83 -> 84 ;
85 [label="gini = 0.0\nsamples = 5\nvalue = [5, 0]"] ;
84 -> 85 ;
86 [label="X[18] <= 18.5\ngini = 0.4444\nsamples = 3\nvalue = [1, 2]"] ;
84 -> 86 ;
87 [label="gini = 0.0\nsamples = 1\nvalue = [1, 0]"] ;
86 -> 87 ;
88 [label="gini = 0.0\nsamples = 2\nvalue = [0, 2]"] ;
86 -> 88 ;
89 [label="gini = 0.0\nsamples = 2\nvalue = [0, 2]"] ;
83 -> 89 ;
90 [label="gini = 0.0\nsamples = 7\nvalue = [0, 7]"] ;
82 -> 90 ;
91 [label="X[2] <= 26.5\ngini = 0.414\nsamples = 41\nvalue = [29, 12]"] ;
81 -> 91 ;
92 [label="X[20] <= 55.5\ngini = 0.4444\nsamples = 9\nvalue = [3, 6]"] ;
91 -> 92 ;
93 [label="X[4] <= 22.0\ngini = 0.375\nsamples = 4\nvalue = [3, 1]"] ;
92 -> 93 ;
94 [label="gini = 0.0\nsamples = 1\nvalue = [0, 1]"] ;
93 -> 94 ;
95 [label="gini = 0.0\nsamples = 3\nvalue = [3, 0]"] ;
93 -> 95 ;
96 [label="gini = 0.0\nsamples = 5\nvalue = [0, 5]"] ;
92 -> 96 ;
97 [label="X[20] <= 50.0\ngini = 0.3047\nsamples = 32\nvalue = [26, 6]"] ;
91 -> 97 ;
98 [label="X[9] <= 29.0\ngini = 0.4321\nsamples = 19\nvalue = [13, 6]"] ;
97 -> 98 ;
99 [label="gini = 0.0\nsamples = 2\nvalue = [0, 2]"] ;
98 -> 99 ;
100 [label="X[6] <= 50.0\ngini = 0.3599\nsamples = 17\nvalue = [13, 4]"] ;
98 -> 100 ;
101 [label="X[12] <= 38.5\ngini = 0.4938\nsamples = 9\nvalue = [5, 4]"] ;
100 -> 101 ;
102 [label="X[2] <= 99.5\ngini = 0.32\nsamples = 5\nvalue = [1, 4]"] ;
101 -> 102 ;
103 [label="gini = 0.0\nsamples = 4\nvalue = [0, 4]"] ;
102 -> 103 ;
104 [label="gini = 0.0\nsamples = 1\nvalue = [1, 0]"] ;
102 -> 104 ;
105 [label="gini = 0.0\nsamples = 4\nvalue = [4, 0]"] ;
101 -> 105 ;
106 [label="gini = 0.0\nsamples = 8\nvalue = [8, 0]"] ;
100 -> 106 ;
107 [label="gini = 0.0\nsamples = 13\nvalue = [13, 0]"] ;
97 -> 107 ;
108 [label="X[0] <= 0.5\ngini = 0.2188\nsamples = 8\nvalue = [1, 7]"] ;
80 -> 108 ;
109 [label="gini = 0.0\nsamples = 1\nvalue = [1, 0]"] ;
108 -> 109 ;
110 [label="gini = 0.0\nsamples = 7\nvalue = [0, 7]"] ;
108 -> 110 ;
111 [label="X[16] <= 6.0\ngini = 0.4109\nsamples = 45\nvalue = [13, 32]"] ;
79 -> 111 ;
112 [label="gini = 0.0\nsamples = 4\nvalue = [4, 0]"] ;
111 -> 112 ;
113 [label="X[2] <= 23.0\ngini = 0.3427\nsamples = 41\nvalue = [9, 32]"] ;
111 -> 113 ;
114 [label="X[9] <= 29.0\ngini = 0.4938\nsamples = 9\nvalue = [5, 4]"] ;
113 -> 114 ;
115 [label="gini = 0.0\nsamples = 3\nvalue = [3, 0]"] ;
114 -> 115 ;
116 [label="X[15] <= 52.5\ngini = 0.4444\nsamples = 6\nvalue = [2, 4]"] ;
114 -> 116 ;
117 [label="gini = 0.0\nsamples = 3\nvalue = [0, 3]"] ;
116 -> 117 ;
118 [label="X[19] <= 42.5\ngini = 0.4444\nsamples = 3\nvalue = [2, 1]"] ;
116 -> 118 ;
119 [label="gini = 0.0\nsamples = 1\nvalue = [0, 1]"] ;
118 -> 119 ;
120 [label="gini = 0.0\nsamples = 2\nvalue = [2, 0]"] ;
118 -> 120 ;
121 [label="X[2] <= 59.0\ngini = 0.2188\nsamples = 32\nvalue = [4, 28]"] ;
113 -> 121 ;
122 [label="gini = 0.0\nsamples = 23\nvalue = [0, 23]"] ;
121 -> 122 ;
123 [label="X[18] <= 51.5\ngini = 0.4938\nsamples = 9\nvalue = [4, 5]"] ;
121 -> 123 ;
124 [label="X[1] <= 36.0\ngini = 0.4444\nsamples = 6\nvalue = [4, 2]"] ;
123 -> 124 ;
125 [label="gini = 0.0\nsamples = 4\nvalue = [4, 0]"] ;
124 -> 125 ;
126 [label="gini = 0.0\nsamples = 2\nvalue = [0, 2]"] ;
124 -> 126 ;
127 [label="gini = 0.0\nsamples = 3\nvalue = [0, 3]"] ;
123 -> 127 ;
128 [label="X[6] <= 73.5\ngini = 0.2778\nsamples = 18\nvalue = [15, 3]"] ;
78 -> 128 ;
129 [label="gini = 0.0\nsamples = 13\nvalue = [13, 0]"] ;
128 -> 129 ;
130 [label="X[16] <= 38.0\ngini = 0.48\nsamples = 5\nvalue = [2, 3]"] ;
128 -> 130 ;
131 [label="gini = 0.0\nsamples = 2\nvalue = [2, 0]"] ;
130 -> 131 ;
132 [label="gini = 0.0\nsamples = 3\nvalue = [0, 3]"] ;
130 -> 132 ;
133 [label="X[19] <= 16.5\ngini = 0.4362\nsamples = 28\nvalue = [19, 9]"] ;
41 -> 133 ;
134 [label="gini = 0.0\nsamples = 3\nvalue = [0, 3]"] ;
133 -> 134 ;
135 [label="X[18] <= 110.5\ngini = 0.3648\nsamples = 25\nvalue = [19, 6]"] ;
133 -> 135 ;
136 [label="X[9] <= 68.5\ngini = 0.2873\nsamples = 23\nvalue = [19, 4]"] ;
135 -> 136 ;
137 [label="X[10] <= 91.5\ngini = 0.1107\nsamples = 17\nvalue = [16, 1]"] ;
136 -> 137 ;
138 [label="gini = 0.0\nsamples = 16\nvalue = [16, 0]"] ;
137 -> 138 ;
139 [label="gini = 0.0\nsamples = 1\nvalue = [0, 1]"] ;
137 -> 139 ;
140 [label="X[17] <= 69.5\ngini = 0.5\nsamples = 6\nvalue = [3, 3]"] ;
136 -> 140 ;
141 [label="gini = 0.0\nsamples = 3\nvalue = [3, 0]"] ;
140 -> 141 ;
142 [label="gini = 0.0\nsamples = 3\nvalue = [0, 3]"] ;
140 -> 142 ;
143 [label="gini = 0.0\nsamples = 2\nvalue = [0, 2]"] ;
135 -> 143 ;
144 [label="X[1] <= 36.0\ngini = 0.4527\nsamples = 78\nvalue = [51, 27]"] ;
0 -> 144 [labeldistance=2.5, labelangle=-45, headlabel="False"] ;
145 [label="X[5] <= 100.5\ngini = 0.2268\nsamples = 23\nvalue = [20, 3]"] ;
144 -> 145 ;
146 [label="X[2] <= 17.0\ngini = 0.0907\nsamples = 21\nvalue = [20, 1]"] ;
145 -> 146 ;
147 [label="X[9] <= 5.5\ngini = 0.5\nsamples = 2\nvalue = [1, 1]"] ;
146 -> 147 ;
148 [label="gini = 0.0\nsamples = 1\nvalue = [0, 1]"] ;
147 -> 148 ;
149 [label="gini = 0.0\nsamples = 1\nvalue = [1, 0]"] ;
147 -> 149 ;
150 [label="gini = 0.0\nsamples = 19\nvalue = [19, 0]"] ;
146 -> 150 ;
151 [label="gini = 0.0\nsamples = 2\nvalue = [0, 2]"] ;
145 -> 151 ;
152 [label="X[12] <= 37.5\ngini = 0.4919\nsamples = 55\nvalue = [31, 24]"] ;
144 -> 152 ;
153 [label="X[11] <= 81.0\ngini = 0.4688\nsamples = 24\nvalue = [9, 15]"] ;
152 -> 153 ;
154 [label="X[20] <= 21.5\ngini = 0.2311\nsamples = 15\nvalue = [2, 13]"] ;
153 -> 154 ;
155 [label="X[4] <= 25.5\ngini = 0.4444\nsamples = 3\nvalue = [2, 1]"] ;
154 -> 155 ;
156 [label="gini = 0.0\nsamples = 1\nvalue = [0, 1]"] ;
155 -> 156 ;
157 [label="gini = 0.0\nsamples = 2\nvalue = [2, 0]"] ;
155 -> 157 ;
158 [label="gini = 0.0\nsamples = 12\nvalue = [0, 12]"] ;
154 -> 158 ;
159 [label="X[20] <= 46.0\ngini = 0.3457\nsamples = 9\nvalue = [7, 2]"] ;
153 -> 159 ;
160 [label="X[13] <= 73.5\ngini = 0.4444\nsamples = 3\nvalue = [1, 2]"] ;
159 -> 160 ;
161 [label="gini = 0.0\nsamples = 2\nvalue = [0, 2]"] ;
160 -> 161 ;
162 [label="gini = 0.0\nsamples = 1\nvalue = [1, 0]"] ;
160 -> 162 ;
163 [label="gini = 0.0\nsamples = 6\nvalue = [6, 0]"] ;
159 -> 163 ;
164 [label="X[6] <= 8.5\ngini = 0.4121\nsamples = 31\nvalue = [22, 9]"] ;
152 -> 164 ;
165 [label="gini = 0.0\nsamples = 3\nvalue = [0, 3]"] ;
164 -> 165 ;
166 [label="X[8] <= 103.5\ngini = 0.3367\nsamples = 28\nvalue = [22, 6]"] ;
164 -> 166 ;
167 [label="X[2] <= 7.5\ngini = 0.2112\nsamples = 25\nvalue = [22, 3]"] ;
166 -> 167 ;
168 [label="X[20] <= 43.5\ngini = 0.4444\nsamples = 3\nvalue = [1, 2]"] ;
167 -> 168 ;
169 [label="gini = 0.0\nsamples = 1\nvalue = [1, 0]"] ;
168 -> 169 ;
170 [label="gini = 0.0\nsamples = 2\nvalue = [0, 2]"] ;
168 -> 170 ;
171 [label="X[18] <= 2.0\ngini = 0.0868\nsamples = 22\nvalue = [21, 1]"] ;
167 -> 171 ;
172 [label="gini = 0.0\nsamples = 1\nvalue = [0, 1]"] ;
171 -> 172 ;
173 [label="gini = 0.0\nsamples = 21\nvalue = [21, 0]"] ;
171 -> 173 ;
174 [label="gini = 0.0\nsamples = 3\nvalue = [0, 3]"] ;
166 -> 174 ;
}